<?xml version="1.0"?>
<opencv_storage>
<opencv_ml_ann_mlp>
  <format>3</format>
  <layer_sizes>
    645 15 2</layer_sizes>
  <activation_function>SIGMOID_SYM</activation_function>
  <f_param1>6.6666666666666663e-01</f_param1>
  <f_param2>1.7159000000000000e+00</f_param2>
  <min_val>-9.4999999999999996e-01</min_val>
  <max_val>9.4999999999999996e-01</max_val>
  <min_val1>-9.7999999999999998e-01</min_val1>
  <max_val1>9.7999999999999998e-01</max_val1>
  <training_params>
    <train_method>RPROP</train_method>
    <dw0>1.0000000000000000e-03</dw0>
    <dw_plus>1.2000000000000000e+00</dw_plus>
    <dw_minus>5.0000000000000000e-01</dw_minus>
    <dw_min>0.</dw_min>
    <dw_max>50.</dw_max>
    <term_criteria>
      <iterations>3000</iterations></term_criteria></training_params>
  <input_scale>
    3.4414371664144214e+00 -2.8154205863435680e+00
    3.6131424735124895e+00 -2.9906997839622504e+00
    8.6943710329859627e+00 -7.9303126884653166e+00
    8.1780908461094093e+00 -7.4367939033535961e+00
    6.7688414257169196e+00 -6.0536618203575818e+00
    6.8476641227526738e+00 -6.0743762948421756e+00
    6.6954528492166041e+00 -5.8910138719574583e+00
    6.6334194661146793e+00 -5.8067779463127724e+00
    6.5921408258103895e+00 -5.7474609605591418e+00
    6.5560703584111861e+00 -5.6926998338589936e+00
    6.5759737892573407e+00 -5.6740961834969221e+00
    6.6436391636270775e+00 -5.6886109450473876e+00
    6.8823492571556182e+00 -5.8093082127919180e+00
    7.1857127704900163e+00 -5.7342287418367412e+00
    5.8898233471485408e+00 -4.4664089068120161e+00
    6.1914273199401846e+00 -4.6400617075936985e+00
    6.3786092847288689e+00 -4.7532370429367656e+00
    6.4257529321724673e+00 -4.7667453451209827e+00
    6.4515825156899309e+00 -4.7699084909497049e+00
    6.4778381305769743e+00 -4.7659005241531656e+00
    6.5570617421724773e+00 -4.7922254056990967e+00
    6.6475599088639568e+00 -4.8242130934333973e+00
    6.8356413005566905e+00 -4.9135571606528554e+00
    7.1526946038970625e+00 -5.0813858004177144e+00
    7.5248244097502806e+00 -5.2403877589585575e+00
    7.6310317162395451e+00 -5.1789052417917549e+00
    7.5622866128990065e+00 -5.0324176117266788e+00
    7.5584833873623101e+00 -4.9749788752400281e+00
    7.5927599060624305e+00 -4.9442927583506737e+00
    7.6219852600221945e+00 -4.9141610232945361e+00
    7.6572312854895879e+00 -4.8944374700919315e+00
    7.6661403736381279e+00 -4.8722870352457326e+00
    7.6970824072595869e+00 -4.8900529507242814e+00
    7.7733766735194028e+00 -4.9659504228896658e+00
    7.6587515516341940e+00 -4.9265311429274199e+00
    7.4516840297671383e+00 -4.7998403380819932e+00
    7.3576627118955322e+00 -4.7376949577788423e+00
    7.3032333593278240e+00 -4.6884355562003464e+00
    7.2711961360703370e+00 -4.6379221882655779e+00
    7.1650753634915327e+00 -4.5372394922638390e+00
    7.0873301737234877e+00 -4.4683708175112891e+00
    7.0441348685618284e+00 -4.4355372826863793e+00
    7.0274687609794499e+00 -4.4406724527755461e+00
    6.9481929879473121e+00 -4.4217423402885787e+00
    6.7887549072066289e+00 -4.3431418174426737e+00
    6.6695786422035832e+00 -4.2710340142665109e+00
    6.6360660179838673e+00 -4.2428575407013511e+00
    6.6052402801714418e+00 -4.2087871059480220e+00
    6.5954564286880704e+00 -4.1972435189457658e+00
    6.5317370651052080e+00 -4.1571450953895797e+00
    6.4872717670489761e+00 -4.1384030776909286e+00
    6.5056972892252851e+00 -4.1736105165521193e+00
    6.5949660966395083e+00 -4.2819439599125149e+00
    6.6358004298635063e+00 -4.3841119856638908e+00
    6.5028537041430710e+00 -4.3580658286953149e+00
    6.2891637195014445e+00 -4.2434411053945720e+00
    6.1140160405275079e+00 -4.1291285823908908e+00
    6.0712324505608493e+00 -4.0994278578572443e+00
    5.9994000269218626e+00 -4.0387614167660457e+00
    5.9199823042164246e+00 -3.9695663770051350e+00
    5.8571784096772515e+00 -3.9217329346646492e+00
    5.7816967747975729e+00 -3.8607201225977184e+00
    5.7468568528473218e+00 -3.8171890305942373e+00
    5.7507016744563817e+00 -3.7961669706340535e+00
    5.7898708466160889e+00 -3.7962193390418562e+00
    5.7385548610969579e+00 -3.7296055914623909e+00
    5.7587960202380142e+00 -3.7297862023743411e+00
    5.7420421616166264e+00 -3.7183977170232345e+00
    5.7022288454415708e+00 -3.6937236490055474e+00
    5.6894666304231603e+00 -3.6918175511575493e+00
    5.6642753781319639e+00 -3.6740947687325005e+00
    5.6741306248556072e+00 -3.6703714760007840e+00
    5.6976898003218883e+00 -3.6652049203760360e+00
    5.7341606497739175e+00 -3.6598820672610013e+00
    5.7141439350126442e+00 -3.6091579208150653e+00
    5.7407939679378952e+00 -3.6037656436248682e+00
    5.7586676106354835e+00 -3.6161546704296805e+00
    5.7284424686022692e+00 -3.6056697169823337e+00
    5.7345454597863643e+00 -3.6181954341297842e+00
    5.6965842314682948e+00 -3.5974789033699333e+00
    5.6826310788795755e+00 -3.5971432695315468e+00
    5.6856165361032263e+00 -3.6033592445803682e+00
    5.7050492824558505e+00 -3.6195751249932768e+00
    5.6680287690533167e+00 -3.5910170926553597e+00
    5.7021782300020281e+00 -3.6081585465302810e+00
    5.7585011889546038e+00 -3.6448017274755204e+00
    5.7758532246590963e+00 -3.6606904667939557e+00
    5.7871899954765151e+00 -3.6696757938616487e+00
    5.7946850674374755e+00 -3.6797137374218170e+00
    5.8298889299217498e+00 -3.7189042842985081e+00
    5.8573278632341870e+00 -3.7551496777308611e+00
    5.8502126777051222e+00 -3.7565706002223442e+00
    5.7768814570467439e+00 -3.7057038418520802e+00
    5.8093092198459759e+00 -3.7297613276665027e+00
    5.8509877380844078e+00 -3.7551844957218186e+00
    5.8388809205529997e+00 -3.7362448543194833e+00
    5.8983073919148312e+00 -3.7652248839292599e+00
    5.9315440419037460e+00 -3.7852231016975213e+00
    6.0122237462385550e+00 -3.8501358873025349e+00
    6.1003293629696485e+00 -3.9223075628965214e+00
    6.1396695884925636e+00 -3.9571836884004759e+00
    6.1614173932118996e+00 -3.9778084681482131e+00
    6.2475428837973528e+00 -4.0544142029798609e+00
    6.3494425703064374e+00 -4.1431205295202291e+00
    6.4292955977406399e+00 -4.2095048511621718e+00
    6.5119115813555064e+00 -4.2798270613778140e+00
    6.5643665937963496e+00 -4.3320990366619769e+00
    6.6649785800989214e+00 -4.4218313415169748e+00
    6.7502915211804133e+00 -4.4989934881788658e+00
    6.8327811395646734e+00 -4.5607407127789639e+00
    6.9850741127931437e+00 -4.6590078328228755e+00
    7.1293982861289384e+00 -4.7538317374590049e+00
    7.3105202378824519e+00 -4.8864266261189471e+00
    7.3638387469690638e+00 -4.9282016352831128e+00
    7.4205842186397142e+00 -4.9788094272479491e+00
    7.5415467073040228e+00 -5.0778479103761285e+00
    7.6768198020189651e+00 -5.1868151501082185e+00
    7.7196707872680026e+00 -5.2262252437617471e+00
    7.7011299212590414e+00 -5.2111942256877839e+00
    7.7313769931420468e+00 -5.2275081434518533e+00
    7.8931396525714970e+00 -5.3434183105439814e+00
    7.9776438499886959e+00 -5.4070855163587686e+00
    8.0457348862125606e+00 -5.4629050846529248e+00
    8.0456841449367218e+00 -5.4710588477146196e+00
    8.1781514610234929e+00 -5.5789007558191859e+00
    8.1988100936773574e+00 -5.5979795392160989e+00
    8.2446457468359853e+00 -5.6308113506347004e+00
    8.2904199368086662e+00 -5.6645306423311155e+00
    8.3739275902070549e+00 -5.7170849010585911e+00
    8.4902284664470873e+00 -5.7935831367856654e+00
    8.5339365004509009e+00 -5.8263916821840400e+00
    8.4417122949179717e+00 -5.7616081900938640e+00
    8.4043551214965895e+00 -5.7511688282542881e+00
    8.1551537140607042e+00 -5.5972202380066047e+00
    8.6765920324058783e+00 -6.0446885049141876e+00
    8.3891195486664607e+00 -5.8969068810203673e+00
    8.2305758737629056e+00 -5.7952894095566094e+00
    8.2153795081805736e+00 -5.7879283834826429e+00
    8.2744113077766688e+00 -5.8410154561473107e+00
    8.2942678971475523e+00 -5.8603170914243936e+00
    8.3203328718833873e+00 -5.8716792320560955e+00
    8.1167107712638451e+00 -5.7007526106629083e+00
    8.9240908226352804e+00 -6.3393910578995509e+00
    8.6550641534659185e+00 -6.2051338811064731e+00
    8.4785770054468603e+00 -6.1137515647173828e+00
    8.5076063724851920e+00 -6.1680554124523690e+00
    8.4432577822030979e+00 -6.1369441401433367e+00
    8.4572009406327329e+00 -6.1611185241866666e+00
    8.4081749227899163e+00 -6.1348565143090692e+00
    8.0843428653498552e+00 -5.8888670187962724e+00
    8.8363574250663355e+00 -6.5288490671952406e+00
    8.1866124709615775e+00 -6.0889017807467010e+00
    8.8295057438829332e+00 -6.6554562780701216e+00
    8.7227138275335854e+00 -6.6694841791407411e+00
    8.5119588325105955e+00 -6.5738059352807658e+00
    9.3150598622334009e+00 -7.3015088124691720e+00
    9.3518258565133099e+00 -7.3792062696002372e+00
    9.7667962309215213e+00 -7.7229635822666900e+00
    1.0078276097957280e+01 -7.9803401413425616e+00
    1.0148758188580885e+01 -8.0299556821364693e+00
    1.0416556351172117e+01 -8.2613003865360124e+00
    1.0961204183963902e+01 -8.7383670518147820e+00
    1.0937841667989124e+01 -8.7248409723584288e+00
    1.1191150706322276e+01 -8.9240044172693889e+00
    1.1566835503832534e+01 -9.1958277181542361e+00
    1.2094579194112045e+01 -9.6144709409541953e+00
    1.2239965568279150e+01 -9.7343864805473306e+00
    1.2139495118917608e+01 -9.6531691675031297e+00
    1.2479144814427611e+01 -9.9416975560907197e+00
    1.2418586024451514e+01 -9.8689045815489997e+00
    1.2097964967378033e+01 -9.5706424737718816e+00
    1.2081711376406849e+01 -9.5315871874792872e+00
    1.2197190491402836e+01 -9.6281217137110140e+00
    1.2244132799664426e+01 -9.6913561659210963e+00
    1.2168873228303710e+01 -9.6311836625431884e+00
    1.2125533920735890e+01 -9.5821552166085961e+00
    1.2167251433174634e+01 -9.5965223858320048e+00
    1.2143318254945099e+01 -9.5454637840458467e+00
    1.1986129385861869e+01 -9.3947464901088438e+00
    1.2077490068393065e+01 -9.4837731587888001e+00
    1.2317849866620033e+01 -9.6820988772144290e+00
    1.1955771751412760e+01 -9.3506100831260852e+00
    1.1930264934119053e+01 -9.3232335196943943e+00
    1.1975268647549134e+01 -9.3892405866709723e+00
    1.1486523387425413e+01 -8.9815823834039694e+00
    1.1462590066422990e+01 -8.9478749342295991e+00
    1.1734677268345175e+01 -9.1788828182961097e+00
    1.1862948802409251e+01 -9.2837993891694328e+00
    1.1638537378760271e+01 -9.0845230021752652e+00
    1.1644295013031639e+01 -9.0884206922453412e+00
    1.1559215475914051e+01 -9.0112726620286789e+00
    1.1392172681026379e+01 -8.8711474045126231e+00
    1.1514736329327338e+01 -8.9579219482908652e+00
    1.1483195042724299e+01 -8.8920509624871862e+00
    1.1556882940413246e+01 -8.9463223831412790e+00
    1.1557992726837064e+01 -8.9389471645205170e+00
    1.1272338744438446e+01 -8.6888460011592077e+00
    1.1147159662421007e+01 -8.6010917821632589e+00
    1.1291952706688772e+01 -8.7367069328602245e+00
    1.1251073025178149e+01 -8.7061598688923141e+00
    1.1117885110945608e+01 -8.5970334619910460e+00
    1.1198420705126704e+01 -8.6475236648437352e+00
    1.1194576921907437e+01 -8.6282168356789182e+00
    1.1127123066104875e+01 -8.5794790464691548e+00
    1.1201327450706192e+01 -8.6528251902127558e+00
    1.1313510581307737e+01 -8.7528116653710040e+00
    1.1160557696796651e+01 -8.6188330623127474e+00
    1.1050762601519773e+01 -8.5016211367964960e+00
    1.1082537612748006e+01 -8.5038062745494791e+00
    1.0812783844939938e+01 -8.2766217914403732e+00
    1.0612200262678734e+01 -8.1276321729783110e+00
    1.0700897273473728e+01 -8.2239098930027215e+00
    1.0872854138318328e+01 -8.3552260351686556e+00
    1.0870358142477958e+01 -8.3322562569816601e+00
    1.0762904100460327e+01 -8.2469868862184423e+00
    1.0629508207795443e+01 -8.1456382797150404e+00
    1.0583417174704183e+01 -8.0917547898445950e+00
    1.0713860119852653e+01 -8.1774474523815641e+00
    1.0789220253168308e+01 -8.2424338689029693e+00
    1.0903914499869828e+01 -8.3751066977903950e+00
    1.0889212071920628e+01 -8.3744630360915959e+00
    1.0535920976295301e+01 -8.0459005420534044e+00
    1.0319337554720825e+01 -7.8650025992735113e+00
    1.0301229542397612e+01 -7.8689173618401060e+00
    1.0426972462968537e+01 -7.9639283945184429e+00
    1.0455715545398597e+01 -7.9837956652199509e+00
    1.0318650962622502e+01 -7.8893112575159474e+00
    1.0153031909628295e+01 -7.7609997681902492e+00
    9.9595096836503831e+00 -7.5802823607194574e+00
    9.9700667682720141e+00 -7.5720345304363503e+00
    1.0120723575032233e+01 -7.7024955306228424e+00
    1.0255852146952531e+01 -7.8276362964657054e+00
    1.0271612915339995e+01 -7.8410846266432142e+00
    1.0255507953554790e+01 -7.8262979198489742e+00
    1.0212985239732198e+01 -7.7933054509105038e+00
    1.0095923638218308e+01 -7.6809509629596970e+00
    1.0112365716019575e+01 -7.6677924092476459e+00
    1.0192250177425677e+01 -7.7248995682090360e+00
    1.0303615484117760e+01 -7.8350220439547655e+00
    1.0369408208574303e+01 -7.9053450313586930e+00
    1.0334640012454607e+01 -7.8715168491327159e+00
    1.0363954602584958e+01 -7.8871613520929920e+00
    1.0379555309569763e+01 -7.8948462246776812e+00
    1.0214714685018890e+01 -7.7483095830391893e+00
    1.0120890230024052e+01 -7.6649457978981825e+00
    1.0285986070620821e+01 -7.8123278297379288e+00
    1.0323206031364377e+01 -7.8561641738454053e+00
    1.0272136145871249e+01 -7.8048050152109729e+00
    1.0280917902801649e+01 -7.7803153083610841e+00
    1.0225112452623600e+01 -7.7125101205868498e+00
    1.0157475952007246e+01 -7.6578084565711446e+00
    1.0621550236666174e+01 -8.0505162718361429e+00
    1.0630821414480035e+01 -8.0604242882940031e+00
    1.0402108590586392e+01 -7.8475966027834811e+00
    1.0413508545016910e+01 -7.8304746079371794e+00
    1.0626221671802423e+01 -7.9940374698469823e+00
    1.0161171006790473e+01 -7.5918255811451960e+00
    9.9490657189911662e+00 -7.3982488453640336e+00
    1.0002273800177175e+01 -7.4404970404881050e+00
    1.0370994331613392e+01 -7.7365499137417695e+00
    1.0420929712893859e+01 -7.7496787851110369e+00
    1.0536844268868679e+01 -7.8203708890314623e+00
    1.0422521103865288e+01 -7.7100258261157126e+00
    1.0466866043709476e+01 -7.7392102083169574e+00
    1.0357322444332967e+01 -7.6754753823233131e+00
    1.0271533540811474e+01 -7.6338344200798041e+00
    1.0029194692603095e+01 -7.4452315691606241e+00
    1.0179075109184422e+01 -7.5783050839936283e+00
    1.0219878751982014e+01 -7.6396164633881316e+00
    1.0195874731775850e+01 -7.6358823620066838e+00
    1.0223960152333623e+01 -7.6385636467101552e+00
    1.0268190862745135e+01 -7.6538815944076859e+00
    1.0138849275780490e+01 -7.5381401809557156e+00
    1.0232308879475204e+01 -7.6027057837854475e+00
    1.0578074651902094e+01 -7.8805657064597625e+00
    1.0688757020021217e+01 -7.9762508758336823e+00
    1.0566592061292459e+01 -7.8867700492428412e+00
    1.0546009009593092e+01 -7.8949694051760106e+00
    1.0621565107364264e+01 -7.9824479044485130e+00
    1.0500983514025410e+01 -7.8886202402948840e+00
    1.0420498090405996e+01 -7.8175795437970423e+00
    1.0490597036726992e+01 -7.8758832370465406e+00
    1.0809046954917724e+01 -8.1322695839230068e+00
    1.1054824528075866e+01 -8.3342853961850878e+00
    1.0885992658574734e+01 -8.1919294426120750e+00
    1.0583899739560152e+01 -7.9310544121035660e+00
    1.0594748786772028e+01 -7.9337219932100664e+00
    1.1027270284320098e+01 -8.3203120987722698e+00
    1.1335776954338346e+01 -8.5909684855389923e+00
    1.1118177076783065e+01 -8.3746194652597694e+00
    1.0699713864205151e+01 -8.0069842438913064e+00
    1.0437640519331897e+01 -7.8079990812518787e+00
    1.0800171586495811e+01 -8.1467011204816711e+00
    1.1173180035077825e+01 -8.4890738961360164e+00
    1.1150052424339547e+01 -8.4583210115346859e+00
    1.1070485957517603e+01 -8.3544630444323253e+00
    1.0779944408809884e+01 -8.0750619556803471e+00
    1.0744789501917698e+01 -8.0360657443811228e+00
    1.0969411942351144e+01 -8.2354945146300267e+00
    1.1062723054248353e+01 -8.3102022433466942e+00
    1.0970729511654906e+01 -8.2090598186459385e+00
    1.0827991331106457e+01 -8.0921281289323979e+00
    1.0879817992722909e+01 -8.1581228043360383e+00
    1.0923180311458420e+01 -8.2213855587204776e+00
    1.0733314925126592e+01 -8.0878438581135832e+00
    1.0652563689518002e+01 -8.0308121948821398e+00
    1.0595547364072466e+01 -7.9917661808293774e+00
    1.0691101112390799e+01 -8.0684530487847113e+00
    1.0958305697674231e+01 -8.2706519722029466e+00
    1.0842956626376301e+01 -8.1633042876621200e+00
    1.0769938958184357e+01 -8.1192002870302886e+00
    1.0905154160533998e+01 -8.2506803944476257e+00
    1.1181757035653314e+01 -8.5074872209139976e+00
    1.1285766009488885e+01 -8.6089449843191819e+00
    1.1097312946963061e+01 -8.4630442190677808e+00
    1.0991975863571362e+01 -8.4032689376222809e+00
    1.0988870128163919e+01 -8.4099411071880539e+00
    1.1474330868689963e+01 -8.8044794585080499e+00
    1.1587791628142462e+01 -8.8961991626237911e+00
    1.1263636055853727e+01 -8.6152649586181251e+00
    1.1108172843009639e+01 -8.4911284043660302e+00
    1.1024099500912298e+01 -8.4358267734919803e+00
    1.1543512956161122e+01 -8.8923288939316159e+00
    1.1767937704808972e+01 -9.0957237017920178e+00
    1.1504557538301123e+01 -8.8716921439992902e+00
    1.1241512724897568e+01 -8.6567703464264376e+00
    1.1211757921250339e+01 -8.6460150836928964e+00
    1.1611965815244645e+01 -8.9800038512742795e+00
    1.1627462930788896e+01 -8.9988723459575439e+00
    1.1679344188952996e+01 -9.0442895796774589e+00
    1.1370124239661127e+01 -8.8010714446314129e+00
    1.1128307224543851e+01 -8.6029589288404029e+00
    1.1198593163171472e+01 -8.6515427268526093e+00
    1.1318868008445971e+01 -8.7576164950123054e+00
    1.1779101500920616e+01 -9.1560501421096845e+00
    1.2059897637475476e+01 -9.3841293215175714e+00
    1.2050864545346000e+01 -9.3683877343564923e+00
    1.1749819502341575e+01 -9.1207451134737809e+00
    1.1635935011001136e+01 -9.0635285410943052e+00
    1.1939078351328687e+01 -9.3483376797419311e+00
    1.2201278293700826e+01 -9.5711369205320782e+00
    1.2143069202175418e+01 -9.4984993678339240e+00
    1.1646412314629671e+01 -9.0546639127807502e+00
    1.1260553455489385e+01 -8.7477031639891294e+00
    1.1449391847475587e+01 -8.9496062663833342e+00
    1.2018247775575073e+01 -9.4504220726417021e+00
    1.1928266923175904e+01 -9.3618364295817038e+00
    1.1700735838575886e+01 -9.1684547890789485e+00
    1.1480954287146732e+01 -9.0072000685388289e+00
    1.1699265019110570e+01 -9.1979359659621789e+00
    1.2290173225844134e+01 -9.6765182673848642e+00
    1.2078145895024917e+01 -9.4830842298803546e+00
    1.1799466457759561e+01 -9.2391657140694843e+00
    1.1842160709512005e+01 -9.2602964786277493e+00
    1.2039013974881570e+01 -9.4472642816412176e+00
    1.2167595668922306e+01 -9.5702074311717649e+00
    1.2098819100797487e+01 -9.5143316870620982e+00
    1.1899729039994444e+01 -9.3488288949044751e+00
    1.1914303496320718e+01 -9.3759636245891862e+00
    1.2011319403160387e+01 -9.4705398219028840e+00
    1.2396535035292368e+01 -9.8071521900757546e+00
    1.2604208732076588e+01 -9.9806433899153326e+00
    1.2238733692786569e+01 -9.6518833404535886e+00
    1.1826620876149102e+01 -9.2919011309016426e+00
    1.2106359782572198e+01 -9.5524457530530622e+00
    1.2551202970229049e+01 -9.9666173079457430e+00
    1.2579098771841139e+01 -9.9947813306720672e+00
    1.2246833385054195e+01 -9.6902714246407715e+00
    1.1842704688243979e+01 -9.3311974918461207e+00
    1.2129744728838372e+01 -9.5682464835621950e+00
    1.2326792720574314e+01 -9.7423035565712048e+00
    1.2333797869410162e+01 -9.7340716411472155e+00
    1.1926438646470462e+01 -9.3538180823619648e+00
    1.1852076803169613e+01 -9.2821077081188168e+00
    1.1922756614950218e+01 -9.3744461395094767e+00
    1.2227354169137371e+01 -9.6677332878880300e+00
    1.2346523947312173e+01 -9.7562522011874453e+00
    1.2053307089331970e+01 -9.4623179812414033e+00
    1.1792590745800537e+01 -9.2024439565346050e+00
    1.1911796303084813e+01 -9.2765700755063332e+00
    1.1992306525966967e+01 -9.3524768588806584e+00
    1.2263967686774031e+01 -9.5871295313277987e+00
    1.1934231865703090e+01 -9.2883776486120677e+00
    1.1827175624906744e+01 -9.1743134566953657e+00
    1.1577200988377305e+01 -8.9854725646324880e+00
    1.1890682695903088e+01 -9.2813677007192013e+00
    1.1809752441607987e+01 -9.2258279511250514e+00
    1.1661099822560777e+01 -9.0945972480626462e+00
    1.1606961910945939e+01 -9.0379850003662590e+00
    1.1771205739056700e+01 -9.1678497300332413e+00
    1.1651426047276619e+01 -9.0657809801633515e+00
    1.1569305940456712e+01 -8.9884996436641345e+00
    1.1854641296590557e+01 -9.2140792558507840e+00
    1.2271153390630209e+01 -9.5451578642372521e+00
    1.1973777412342315e+01 -9.2902257238640615e+00
    1.1620906657042607e+01 -8.9833314301715461e+00
    1.1664762324725126e+01 -9.0033661906582889e+00
    1.1698047036058218e+01 -9.0202621289684295e+00
    1.1631825284886819e+01 -8.9757753593767333e+00
    1.1678416997753093e+01 -9.0416289902959477e+00
    1.1844624172815536e+01 -9.2174265895898664e+00
    1.1737612104503992e+01 -9.1389635768830253e+00
    1.1649762439098710e+01 -9.0663194252790671e+00
    1.1577225934385853e+01 -9.0134507073622512e+00
    1.1608389523475697e+01 -9.0596506721889547e+00
    1.1745725987255319e+01 -9.2011477524922380e+00
    1.1661935211911741e+01 -9.1398895546932248e+00
    1.1716344534112071e+01 -9.1850188205769978e+00
    1.1819730611826062e+01 -9.2799535630447068e+00
    1.1913619240546243e+01 -9.3680943762153017e+00
    1.1945364019508105e+01 -9.4009988162265579e+00
    1.1998454620537796e+01 -9.4503823034393744e+00
    1.1845989476332420e+01 -9.3213480273191944e+00
    1.1831206429599533e+01 -9.3017600802040619e+00
    1.2251227062817495e+01 -9.6720855948179683e+00
    1.2509885725359725e+01 -9.9194864408503278e+00
    1.2325883676614731e+01 -9.7581112591989960e+00
    1.2352124618353630e+01 -9.7754869218221536e+00
    1.2433174443353211e+01 -9.8519464500503346e+00
    1.1979320723990467e+01 -9.4789246272618399e+00
    1.2157626214623443e+01 -9.6465483038647299e+00
    1.2640729558153900e+01 -1.0073316388049149e+01
    1.2856855604839041e+01 -1.0265119000035520e+01
    1.2522618106734937e+01 -9.9645078466810233e+00
    1.2269979021194876e+01 -9.7414066964277346e+00
    1.2342000319291957e+01 -9.8008645450466680e+00
    1.2412399425634522e+01 -9.8667288302533578e+00
    1.2751208813635110e+01 -1.0166949524195598e+01
    1.2919198651019984e+01 -1.0322515335718576e+01
    1.2953145331080860e+01 -1.0338478939334879e+01
    1.2865726686414343e+01 -1.0235633272401687e+01
    1.2730820091730594e+01 -1.0124189013895700e+01
    1.2534634959966159e+01 -9.9674759581896364e+00
    1.2604953878420259e+01 -1.0034020163167810e+01
    1.2995588878334015e+01 -1.0403051001928786e+01
    1.2922557258816045e+01 -1.0371795963240864e+01
    1.2450861307810481e+01 -9.9566890595735718e+00
    1.2289019446482110e+01 -9.7944311987405381e+00
    1.2455201004224403e+01 -9.9494654672208185e+00
    1.2222465604288507e+01 -9.7722976651264197e+00
    1.2237934474465359e+01 -9.8015556462854931e+00
    1.2574043918000774e+01 -1.0096447611027099e+01
    1.2778213137183497e+01 -1.0271229635551427e+01
    1.2898407176614329e+01 -1.0354644036507493e+01
    1.2727666997197085e+01 -1.0181046177873519e+01
    1.2557811655026521e+01 -1.0007000584463031e+01
    1.2622180900499313e+01 -1.0062689488546022e+01
    1.2772183259967242e+01 -1.0211530715964237e+01
    1.2863958698539914e+01 -1.0309433285527273e+01
    1.2921088884214525e+01 -1.0381698745740589e+01
    1.2869603848020835e+01 -1.0369832396961311e+01
    1.2804984955107686e+01 -1.0327194975327494e+01
    1.2845530415762360e+01 -1.0356699701361814e+01
    1.2712752457943060e+01 -1.0239961792009520e+01
    1.2662449927706295e+01 -1.0209909244136780e+01
    1.2804406293325576e+01 -1.0361685134100608e+01
    1.3035321906108113e+01 -1.0584173194256445e+01
    1.3107525421199274e+01 -1.0657521564075125e+01
    1.2982314378691413e+01 -1.0558508249054544e+01
    1.2909039338265806e+01 -1.0492485831413980e+01
    1.3229387516588268e+01 -1.0761110263047300e+01
    1.3128897288919184e+01 -1.0664497940218931e+01
    1.3002069173169135e+01 -1.0573074719485252e+01
    1.3158856388713257e+01 -1.0736858984668100e+01
    1.2957188903567442e+01 -1.0565172548737335e+01
    1.3149930945574543e+01 -1.0711497849203697e+01
    1.3076104433788521e+01 -1.0625048717845099e+01
    1.3060369635783101e+01 -1.0577160198768663e+01
    1.2754532671688578e+01 -1.0278291874940985e+01
    1.1396928747722180e+01 -9.1269623398367692e+00
    1.0800653452228756e+01 -8.6205713974683675e+00
    1.0342267570646579e+01 -8.2301925570289569e+00
    1.0121102397456243e+01 -8.0456174076486136e+00
    1.0710912827318818e+01 -8.5569156924274559e+00
    9.6005674960585363e+00 -7.6705301392433256e+00
    9.5370315923367865e+00 -7.6487642793218669e+00
    1.0111669733606394e+01 -8.1915102798862858e+00
    9.8403726787012324e+00 -8.0151658142397118e+00
    1.1594978250399004e+01 -9.5508843657062741e+00
    1.2431471308194414e+01 -1.0330364893877499e+01
    1.2510723135007947e+01 -1.0385778653094937e+01
    1.1980978888595638e+01 -9.8764698607367354e+00
    1.0626162495935175e+01 -8.6862428696790239e+00
    1.0354480518417580e+01 -8.4478891862085099e+00
    1.0646941963795417e+01 -8.6964967264686912e+00
    1.1892320617901655e+01 -9.7461883918013861e+00
    1.3339369856812773e+01 -1.1009248291354092e+01
    1.2827969410324759e+01 -1.0636706165794877e+01
    1.2580643760451469e+01 -1.0430950216564669e+01
    1.1419418009298651e+01 -9.4321093848952273e+00
    1.0089013199759281e+01 -8.2774723468679241e+00
    9.8906523106760957e+00 -8.0880279308289378e+00
    9.9855212423621218e+00 -8.1617551773965396e+00
    1.1640293567594313e+01 -9.5851626526086928e+00
    1.2965949570830933e+01 -1.0778612025889194e+01
    1.2533572181451619e+01 -1.0447806758150657e+01
    1.2584216078173750e+01 -1.0491539521687701e+01
    1.2805854120621875e+01 -1.0668825158702122e+01
    1.2931251793750775e+01 -1.0761664816308562e+01
    1.2784090100755913e+01 -1.0629656681466221e+01
    1.2722612827319628e+01 -1.0573951234251867e+01
    1.2846425385798435e+01 -1.0682102232643301e+01
    1.2921790585991697e+01 -1.0737496635317608e+01
    1.2990850221608472e+01 -1.0776447199138417e+01
    1.3049358734086349e+01 -1.0810993596948391e+01
    1.3210702161261308e+01 -1.0933597508266200e+01
    1.3042828271117390e+01 -1.0774417827462351e+01
    1.2832432638482908e+01 -1.0573513624077556e+01
    1.2649303871967319e+01 -1.0396341377705236e+01
    1.2852550574130081e+01 -1.0562072770209147e+01
    1.2801246856122146e+01 -1.0531323021102988e+01
    1.2944414617660868e+01 -1.0677987419538022e+01
    1.2734638594538065e+01 -1.0518039499110479e+01
    1.2870800096462837e+01 -1.0650826925289614e+01
    1.2721566692207153e+01 -1.0524014410264778e+01
    1.2801683323478777e+01 -1.0587850712182050e+01
    1.2927364359758432e+01 -1.0678879688312438e+01
    1.3037039079305378e+01 -1.0740669872828754e+01
    1.3061557643238425e+01 -1.0721974127011890e+01
    1.2779611857067929e+01 -1.0443900828809198e+01
    1.2194904699653275e+01 -9.9101213912647186e+00
    1.1835488179283905e+01 -9.5661228244245766e+00
    1.1344529387944094e+01 -9.0984318611632364e+00
    1.1088463361379764e+01 -8.8323622977590439e+00
    1.0798812430088187e+01 -8.5460731077161931e+00
    1.0614637707338661e+01 -8.3629917006431533e+00
    1.0499500831808110e+01 -8.2510242483638230e+00
    1.0303798266310645e+01 -8.0791907110496268e+00
    9.9303614785094183e+00 -7.7506859872860190e+00
    9.6839850626054407e+00 -7.5160043470242064e+00
    9.6064495348386352e+00 -7.4124512921464456e+00
    9.6336811016608266e+00 -7.3983526735386320e+00
    9.4864687207731997e+00 -7.2678448591214329e+00
    9.2937356765700088e+00 -7.1102914348031341e+00
    9.2363854855716809e+00 -7.0458615894377843e+00
    9.2427015126304042e+00 -7.0276893198685846e+00
    9.0909366708192021e+00 -6.8888676577833357e+00
    8.8805436220396228e+00 -6.6978568471395938e+00
    8.7423613746520807e+00 -6.5589060644581165e+00
    8.7234832560880431e+00 -6.5228384370831352e+00
    8.6993128322882676e+00 -6.4991379819183992e+00
    8.6292077146961912e+00 -6.4379658715657211e+00
    8.6311505507142225e+00 -6.4314283194476145e+00
    8.6896056799818258e+00 -6.4788457202250882e+00
    8.7042376402391266e+00 -6.4919538752891048e+00
    8.6251761907522564e+00 -6.4231998463854110e+00
    8.5353066936283142e+00 -6.3488468637864930e+00
    8.4737096401441985e+00 -6.2954015535918932e+00
    8.3935455116705224e+00 -6.2286929615468996e+00
    8.3209612089692833e+00 -6.1633866888995081e+00
    8.3533204879787935e+00 -6.1667140255243593e+00
    8.4778960700602966e+00 -6.2564866531567542e+00
    8.5772499488089338e+00 -6.3469679167765172e+00
    8.5333968113274903e+00 -6.3222066926602078e+00
    8.4480720165647583e+00 -6.2616667211306325e+00
    8.4029327007469927e+00 -6.2281992761792679e+00
    8.3405567284332278e+00 -6.1733880341464218e+00
    8.2284033760295738e+00 -6.0936269716706661e+00
    8.1344516318465026e+00 -6.0208089762162365e+00
    8.1710143680493346e+00 -6.0404914818603235e+00
    8.3370963828488094e+00 -6.1729306558898740e+00
    8.4924351710150674e+00 -6.3191941360531514e+00
    8.6144689363118179e+00 -6.4336395357770817e+00
    8.7105801736022226e+00 -6.5114783367887465e+00
    8.7818353565274094e+00 -6.5731350166719125e+00
    8.7886667105368144e+00 -6.5864393832530874e+00
    8.8466812955839256e+00 -6.6476158472942997e+00
    8.9803376563910451e+00 -6.7751853109031135e+00
    9.1107110076147446e+00 -6.9108802983231286e+00
    9.2604239172829708e+00 -7.0765488600268451e+00
    9.4195743078770064e+00 -7.2542100215713194e+00
    9.5320790955038266e+00 -7.3911221755370633e+00
    9.6195368207562097e+00 -7.5033226301146669e+00
    9.7888895366486341e+00 -7.6847663923886689e+00
    9.8889392303458710e+00 -7.8012793648209735e+00
    1.0030450795824745e+01 -7.9470379485269413e+00
    1.0191791058881881e+01 -8.1210312687178234e+00
    1.0308435148109909e+01 -8.2688424445842479e+00
    1.0410513097417081e+01 -8.4001836094652766e+00
    1.0506387940255349e+01 -8.5068180292386959e+00
    1.0665480933809230e+01 -8.6517292752625146e+00
    1.0813914191550621e+01 -8.7798812117362388e+00
    1.1015495559832733e+01 -8.9654078946283633e+00
    1.1084591729181348e+01 -9.0398703231402475e+00
    1.1124667175889922e+01 -9.0911139735116642e+00
    1.1267851973953592e+01 -9.2341354898682120e+00
    1.1521398327327818e+01 -9.4749488040751881e+00
    1.1855222390778382e+01 -9.7865303890129116e+00
    1.2079153291528215e+01 -9.9881142577428736e+00
    1.2243985019944899e+01 -1.0121564167285840e+01
    1.2426953006979280e+01 -1.0272547829707653e+01
    1.2578332415888189e+01 -1.0409131939580613e+01
    1.2627218207255966e+01 -1.0468746556296114e+01
    1.2760670706095269e+01 -1.0607028200063667e+01
    1.2897440468840324e+01 -1.0751727706597091e+01
    1.2982432482989553e+01 -1.0849937515461354e+01
    1.3070498682656687e+01 -1.0950125138108653e+01
    1.3082963782232017e+01 -1.0966661264601674e+01
    1.2968997321029848e+01 -1.0859001239248995e+01
    1.2895753054333479e+01 -1.0791038060582684e+01
    1.2883480453655981e+01 -1.0790109946262836e+01
    1.2842888797225999e+01 -1.0769647998229695e+01
    1.2812724901779511e+01 -1.0762043141567572e+01
    1.2793167120441073e+01 -1.0767704574804396e+01
    1.2712252667421019e+01 -1.0720510441370575e+01
    1.2579675438453625e+01 -1.0617796325482402e+01
    1.2490889619263552e+01 -1.0541338110237557e+01
    1.2506179080618809e+01 -1.0550989142717421e+01
    1.2627841370800500e+01 -1.0655339201098720e+01
    1.2747525187443973e+01 -1.0755122364821020e+01
    1.2848701468759579e+01 -1.0833332860776848e+01
    1.2907729988624993e+01 -1.0872923221493135e+01
    1.2878122317752275e+01 -1.0850099824492005e+01
    1.2779595845687700e+01 -1.0782211620215252e+01
    1.2650420351140628e+01 -1.0687247809967783e+01
    1.2507999928359034e+01 -1.0581004045785271e+01
    1.2317648664327180e+01 -1.0451502605104260e+01
    1.1985713771741620e+01 -1.0213394532615171e+01
    1.1624680473500078e+01 -9.9501100162493774e+00
    1.1422747617326177e+01 -9.7991479244630302e+00
    1.1568041884688551e+01 -9.9095713976305149e+00
    1.1931876558797194e+01 -1.0097204324941163e+01
    9.9932415010567155e+00 -8.2201973790627321e+00
    7.7029386420756749e+00 -6.1792310503784638e+00
    7.3443570561911775e+00 -5.8622444538770653e+00
    7.4036778196328425e+00 -5.9384132390357900e+00
    8.5237711626454473e+00 -6.9435475871283101e+00
    1.1000880177291959e+01 -9.1410774593280735e+00
    1.1908243835810492e+01 -9.9949159645405494e+00
    1.1768828808704862e+01 -9.9163822660756011e+00
    1.1731690376889460e+01 -9.9223029237363018e+00
    1.2581481808239090e+01 -1.0743188001282352e+01
    1.0907333750620666e+01 -9.5106865514254721e+00
    8.7697312772544826e+00 -7.6112167652781340e+00
    8.3896052964558940e+00 -7.2724351321374598e+00
    8.3546913260490161e+00 -7.2482375301916857e+00
    8.9186580354002434e+00 -7.7755481318072528e+00
    9.9997064807715024e+00 -8.7884085574843169e+00
    1.0314029971296849e+01 -9.1067998749009806e+00
    1.0223425227537387e+01 -9.0312515988876996e+00
    1.0373929220282534e+01 -9.1545911048066255e+00
    1.0995383475477023e+01 -9.6797264306987980e+00
    1.0638222458986892e+01 -9.2159958608777828e+00
    3.8518504590656049e+00 -2.9883269974796161e+00
    3.5496065461430408e+00 -2.8072386383864147e+00</input_scale>
  <output_scale>
    5.2631578947368418e-01 4.9999999999999994e-01 5.2631578947368418e-01
    4.9999999999999994e-01</output_scale>
  <inv_output_scale>
    1.8999999999999999e+00 -9.4999999999999996e-01
    1.8999999999999999e+00 -9.4999999999999996e-01</inv_output_scale>
  <weights>
    <_>
      2.2995309846014788e-02 2.1707338496232798e-02
      9.2316530631600113e-03 3.1404239316908850e-01
      -5.4792780551000779e-02 -2.7910279594712328e-02
      2.7671693454644933e-02 2.1011804205795750e-02
      3.0771523116634867e-02 -5.6696757800589595e-02
      2.7012488324532125e-02 2.2807068230625099e-02
      -2.1192328630552048e-02 4.2259617245666022e-02
      5.4871817381808380e-02 -1.0519448756794902e-02
      2.0838115576765109e-02 -1.3784099289285421e-02
      3.0796756215684437e-02 -5.4828227571048068e-03
      -2.7013984047099798e-02 -1.1497632297724240e-02
      1.1531410858160054e-03 -4.2693417295807589e-03
      -2.3477557873788867e-02 1.9978394456670188e-02
      9.6945205136776208e-02 8.9597041490444927e-03
      2.1941605129878992e-02 2.1009123026459933e-02
      -8.6766076749451887e-02 9.6829953094040031e-04
      1.0424426422397663e-02 7.5868009546799800e-02
      -3.2850843907413284e-03 5.9020392633207706e-02
      -6.9711753630846592e-03 -8.2194803441618919e-02
      -4.5986014639226493e-03 6.4927116754021671e-02
      1.0573282224263232e-01 -1.1758598828673530e-01
      1.2083889793763451e-02 -6.6518872463757456e-02
      -6.3233042319247451e-02 1.8622206440110794e-02
      2.2070132573697051e-02 -4.6739590440697107e-03
      4.3051736981650414e-02 1.0713350233372417e-02
      -1.2286231443559352e-02 -7.2150621442640143e-03
      1.9916102657294914e-02 -7.6713155296750180e-03
      -1.4861519889906217e-02 2.8211313031693996e-02
      -1.2858371605910179e-01 2.8571288434780743e-03
      1.6876572270043355e-02 1.7499606788863708e-02
      3.8860369409559220e-03 2.3212315877951112e-03
      5.6303581221397985e-03 9.2968505304918791e-02
      -1.1452420479012076e-02 -2.3414385965715144e-03
      6.5845170853598978e-03 5.6367586847519543e-03
      6.7232997957437229e-03 -4.2320231649704363e-03
      1.5030227839835002e-02 -1.1533997970290614e-02
      -2.6677421817436424e-02 1.6797297705658111e-03
      8.0675467614102752e-04 -1.6784379313546907e-03
      4.5629255751374487e-04 4.2675478264701675e-03
      2.3893335566113866e-02 -8.3047349036420093e-04
      1.0004297110285797e-03 5.6253424514369533e-04
      4.5685939654936371e-02 3.2924636428578952e-03
      4.1499474661395716e-03 -1.6311357562943601e-01
      2.2763782783394465e-03 -4.7772660803958103e-03
      -1.4694099511698370e-03 -4.5964352142305494e-03
      1.3720381338490951e-03 -6.0229744818960632e-04
      -7.1456471389672309e-04 3.5364669178882278e-02
      -5.6210631604154317e-03 6.1804081975693871e-03
      4.6307836684402262e-04 1.4780214544922831e-02
      -3.1188688051753729e-04 6.7711660149351732e-03
      -1.7256604348946755e-01 2.1064448304570235e-06
      -2.7699610833233630e-03 -1.4400684587420683e-03
      -7.4973671679694131e-03 -3.4833092221256104e-03
      -1.9542261302505737e-03 -1.7518747711415289e-04
      1.2374129759705466e-02 -5.1580867572142289e-03
      7.0606971224710614e-03 -3.0186587895181927e-04
      4.1190176515827496e-03 9.3277334636387499e-04
      4.1448110999515644e-03 -1.3435055665735512e-01
      3.1690562509918822e-03 4.6185041329574412e-04
      -7.4238364127169887e-03 -5.3603594478564146e-03
      -1.4208577660316931e-03 1.5079020045669156e-02
      2.6634501737194861e-05 7.3737374592988417e-02
      -3.1917627044172900e-03 4.7561157475018070e-03
      -2.7273970894251378e-03 9.4983731489134784e-04
      2.3152354417857856e-03 3.9860470100089055e-03
      -4.2376933833166430e-02 1.1765182507236353e-03
      1.9648559404711902e-03 -1.4262758688628882e-03
      3.0834270295756685e-04 2.7322692555966990e-03
      1.5798978215622365e-03 -2.5931364872356362e-03
      2.1685043925761073e-02 -4.4068954327655049e-03
      3.4472207348307839e-03 2.3857902552240008e-03
      3.3177575860078262e-03 -1.9981651061639623e-03
      5.7762440797050939e-03 -1.6897249674402547e-02
      7.5854849935140566e-03 -2.7869589061094453e-03
      -5.2914044762885611e-03 -5.2409430537285625e-04
      4.6060018441861344e-03 -4.4637892589754488e-03
      -6.9223381761149630e-04 4.0569193824619286e-02
      -5.5425056282246308e-03 2.3556626171726703e-05
      2.3231895752342272e-03 3.9243145623929761e-05
      1.3588339914453209e-03 3.4569221185614714e-04
      -4.3729440520635196e-02 3.7153652338715024e-03
      -1.1206234412422108e-03 -5.2745886719036356e-05
      -3.4904571639709989e-03 4.3756253437982158e-03
      -1.7552874014841455e-03 5.0078310185711775e-03
      6.8507393999745403e-03 -5.4134234577635546e-04
      1.9749418350166119e-03 -1.9741185578174992e-03
      2.8708730447673226e-03 -1.8373208625187022e-03
      3.5670466872285959e-04 -8.8415448822320747e-02
      2.6983870639341379e-03 9.7666252114745494e-04
      1.0823686995054633e-03 -1.0190483312124113e-03
      1.7707212307222466e-02 -2.2610403309991233e-03
      1.7034964261971264e-02 1.9020869343470258e-02
      1.0679895857542724e-02 4.5889174291057730e-04
      1.7204586930340233e-02 -1.4839632960711188e-02
      1.3986618681716759e-02 5.2524069996441360e-03
      9.0027813556033346e-03 4.2228083673560811e-03
      -2.2349246710812943e-02 -3.8929128100655516e-03
      -6.4514408950810693e-03 -6.5888562864160087e-03
      -2.6663081552042180e-03 -6.7641950904654411e-04
      -2.7302181983534573e-03 -9.0946979758439262e-04
      2.5320109491929325e-03 -2.9199221839117848e-03
      1.2245055123324833e-04 -3.5002652398716345e-03
      -5.8846313723856492e-04 1.7618007457204345e-02
      1.6045756850909761e-02 1.1553572950322242e-03
      1.7551551653747276e-03 -3.8425730782737973e-03
      -5.7572965052542877e-02 4.0621941286054569e-03
      -8.4761948550744648e-02 -3.0226508023781847e-02
      3.1447229232102287e-03 -6.0566683884161841e-03
      -1.0904188009715396e-01 -9.2941125911158908e-03
      -1.0964122673701580e-01 9.2098572856570021e-04
      -1.3205370160507627e-02 -1.3425737976288346e-03
      9.7054999979832024e-02 2.6002568045392535e-04
      -3.1907584325985240e-03 2.5170959579794328e-03
      7.5411069449097081e-04 2.6627805489299683e-03
      3.0616973444968494e-03 -1.2366584122456101e-03
      1.5449596554110456e-03 -2.0067315444860677e-03
      1.8943997769869981e-02 -2.0273804025023765e-03
      1.8300222818988135e-03 4.1448519237116878e-02
      9.8031122195167317e-04 -5.9005627267515069e-03
      1.4529099693376105e-03 6.5250386974794762e-04
      3.3118559041396974e-03 1.2077667775089299e-03
      4.1923899099942010e-03 3.0824608553044687e-03
      -8.2744525775617144e-04 3.6117038782839963e-03
      3.4917832577898108e-03 8.3972845455452371e-03
      3.2437300607668132e-03 3.6333806544945764e-03
      5.5552368294552019e-02 1.5543713857647597e-03
      -2.8264606549807687e-03 4.7614937994795931e-04
      -2.6757831291182744e-03 4.7395880055711281e-03
      2.2057109023791576e-03 3.5853889187931853e-03
      5.1797555297579531e-03 -4.3605226918936170e-04
      1.7096563587673328e-03 1.7062015539755049e-03
      5.9119359558163012e-03 3.1717545766452144e-03
      -6.8273710142291422e-04 4.2817383345497326e-02
      -2.0712587004973007e-03 -4.2884512243375915e-03
      2.0156195734023540e-03 2.0169906301994848e-03
      3.4568887498370102e-03 -2.6971149545360284e-03
      6.6871817935191206e-03 3.2939582995954986e-03
      -2.4747497358327993e-03 -1.1837983279815490e-03
      2.1099393423915933e-03 4.3197357867301514e-03
      4.7332217594932323e-03 -2.0371350642435283e-03
      4.7823787793685221e-02 -1.9936184181482677e-03
      -6.1578757689060475e-03 2.0264539311638363e-03
      -5.1574288267841953e-04 3.8424722226408511e-03
      -2.0144102133134978e-03 5.0874597603348583e-03
      6.4532890335248531e-03 -2.4041559106104588e-03
      1.4503680865406013e-04 6.6313715952072780e-03
      7.8837582196795014e-03 3.9861671649543146e-03
      2.2024546078833651e-03 4.3319299009177678e-02
      1.5282209398162438e-03 -6.8758029332194439e-03
      -1.8359299528485950e-03 -1.8665100361649615e-03
      6.8552437003645576e-03 -3.1470332902710061e-03
      7.4738427223660477e-03 3.5709293095633732e-03
      -2.0839217262574148e-04 3.9961306513830895e-03
      2.4921008889351539e-03 4.7213339269718329e-03
      2.3724756864242180e-03 1.7971516740173247e-03
      4.8047334671772315e-02 -1.3844871118932633e-03
      -6.3731821362100908e-03 8.2822058198510611e-04
      1.5246404434236995e-03 3.1063054507119974e-03
      -2.1786013435996527e-04 3.5334706996602797e-03
      4.0758516436549793e-03 -9.6844472303299562e-04
      2.6073821315798196e-03 2.8564031001899895e-03
      3.5959429854319097e-03 5.3894761019801724e-03
      1.7291158787188302e-03 6.0200004833548051e-02
      8.7385779061738603e-04 -3.0453930132485355e-03
      -3.1925533376464988e-03 -2.1538699445982253e-03
      3.7046533018871091e-03 -3.0647141643321985e-03
      2.6655280631506617e-03 7.4128541862064287e-03
      -1.2755158350432525e-03 -5.3442198125935522e-04
      6.3678978306514816e-03 6.1352238897454643e-03
      3.6953552333721506e-03 4.7437901889314325e-03
      3.9625049538827672e-02 3.6205220432733339e-03
      -1.8489681274649577e-03 -2.2840675844699463e-03
      -2.8977819060408490e-04 2.1716489639415945e-03
      -4.6737777576430720e-03 1.9284299731723252e-03
      5.8413311479411411e-03 -5.1006011803519172e-03
      -8.3598694204922030e-05 3.1944954925090291e-03
      4.4502074497217783e-03 2.5925580348811709e-03
      -2.1351930484502101e-04 2.1913472065829873e-02
      -1.4284370118970440e-03 -7.4039190343291221e-03
      -2.6211862911245105e-03 -1.4762473449662285e-03
      7.0244803944614041e-03 -2.7416291170970202e-03
      6.3778940415444409e-03 3.5607684278031832e-03
      -3.4820674012261666e-03 4.9331436777419755e-03
      3.3497281077653025e-03 4.6314463131719051e-03
      2.1136727099336635e-03 4.0292404151201101e-03
      1.2733066712530935e-02 4.6291160911265412e-03
      -5.0291096639159287e-03 -6.3413540746086645e-04
      -4.2188219776016856e-03 2.3869537141696152e-03
      -3.3293767294202727e-03 7.6027156250325981e-03
      5.3335162583575714e-03 -1.9147134210159720e-03
      6.1203582376050396e-04 8.4978170633482238e-03
      3.3641233979456522e-03 4.0857124693440931e-03
      7.8478420452766657e-04 6.6728221005035116e-05
      -8.0350723948589657e-04 -6.5601905698119524e-03
      5.1304293812029782e-04 -4.3788343346044933e-03
      -1.9066505905849175e-03 -2.3545030471333011e-03
      2.6771769806492440e-03 1.5820245024869645e-04
      -1.3955272344305443e-03 2.1790898946228193e-03
      -2.4346376330312484e-03 1.4283945114081037e-03
      7.5301376509215908e-04 2.9575018023915338e-03
      1.0194784790909348e-03 1.2569604353188358e-03
      -2.4488172493126025e-03 -3.8413568015883150e-03
      7.2136682124882836e-04 -2.1956219726877581e-03
      1.7781478115480851e-03 -7.4362301801129277e-04
      3.5149139429269780e-03 -1.0748231944092881e-03
      -2.1853765368710725e-03 3.1934493035368525e-03
      2.9221183682445707e-03 -3.1373025403751956e-04
      -3.2808477379612094e-03 2.9586954261290811e-03
      -7.9436380437057099e-04 -2.2926216309398016e-03
      5.7400556986330340e-04 -3.3724656730985299e-04
      2.9806627795049873e-03 -1.3694894148186471e-03
      2.6586486363707963e-03 -9.8103670091598044e-04
      2.0654328265980095e-03 -1.6070975466204404e-03
      -4.5827562413776042e-04 -2.3254567226199375e-03
      2.1545903692768019e-03 -1.3380085417179016e-03
      3.5565398402617992e-04 -2.3106806075597094e-03
      -1.5165492802121684e-03 -1.3936011683650547e-03
      -1.1389669063224094e-03 -1.9739034260198708e-03
      2.7557400998381946e-03 3.6654935895611574e-03
      -2.5341909065660106e-03 -1.8855047044497007e-03
      1.2167114608356348e-05 -1.5465306220410640e-03
      2.3669691920076776e-03 -7.3199686039851714e-04
      1.0655227705722676e-03 -8.1745418579939574e-04
      3.3701008584928981e-04 -1.1230861005343078e-04
      1.1034437420400602e-03 2.2647383711857454e-03
      -2.6471024225325039e-03 2.8082666087308437e-03
      -7.8232085378511789e-04 1.0351913801933575e-03
      -1.9132875885560195e-03 -3.7131047686542523e-03
      4.1701158147794881e-04 -7.2308207447196841e-04
      -1.4447435731732407e-03 -1.6111333965191533e-03
      1.2765722369539461e-05 -2.7163064567356692e-03
      -2.8535214006217380e-03 -5.2364272031855919e-04
      3.4168767446372166e-03 8.0706177063931124e-04
      3.0857056477580961e-03 -5.8638835867951098e-04
      1.5597414135986984e-03 -2.0435371337998985e-03
      1.5328365881012544e-03 -2.3541470227236225e-03
      4.5910212623384951e-04 -1.5281452666863703e-03
      -1.1165602639551280e-04 -8.6366536250269876e-04
      -1.9272628537822414e-03 6.7088818655965880e-04
      -1.5111604715322118e-03 3.4361326462214558e-03
      -8.8941543093596368e-05 3.1960184495529276e-03
      -2.1196459404446660e-03 -1.1551137111739369e-03
      1.3979926723989087e-03 -2.7772732561563811e-03
      -1.3267451582169611e-03 -1.1124435931892133e-03
      3.3724113159056199e-03 -5.2591989055255750e-04
      8.6401057126069491e-04 -7.2793298691881331e-04
      -1.5007911837409790e-03 1.7047839926631909e-03
      3.5298173529606874e-03 1.6084308116250138e-03
      -1.8219362604943584e-03 3.1058228393119177e-04
      -5.7079505847111075e-03 -1.6458797438199256e-03
      -8.2573969301208904e-04 -1.7621766633994309e-03
      2.6979517868598530e-03 2.8235035199239015e-03
      -2.3426932999173620e-04 -8.3447506490290965e-04
      2.9234588919817099e-04 6.8246009342338564e-04
      3.9888576199390560e-03 1.8191235004854035e-03
      1.1871882689333320e-03 -2.6559365396077311e-03
      3.3163067906458684e-03 -2.8512951332904288e-03
      -2.3512837251530138e-04 8.7749101747700822e-04
      -3.0782683874676955e-04 3.8837672626399595e-04
      2.6609298875072472e-03 5.3907598799870908e-04
      1.2699762681867119e-03 7.9311769350977411e-04
      7.9472302307771151e-04 -2.3290669935290146e-03
      -1.6011413859681116e-03 -1.2643623321241424e-03
      1.2470336986051490e-03 -1.3472797693258008e-03
      -2.8136243387029882e-03 3.3744549984021195e-03
      2.9834575703986789e-03 -7.2280982712865575e-04
      -3.3821731389029270e-04 2.3885227416796099e-04
      5.4164651538611607e-04 5.9967301206986009e-03
      -5.8235161175730613e-05 2.0538113020286846e-03
      -4.7169645840332555e-03 -3.2166845431952020e-03
      -1.0188919373350104e-04 2.6280078693530573e-05
      1.3702140636286774e-03 -5.3293411624717553e-03
      3.1182322818958585e-03 3.0974198961200394e-03
      -1.8313262022582176e-03 -1.7367056271941333e-03
      2.6562734849333125e-03 3.9687335332138180e-03
      2.2440969227113723e-03 -3.2077738259069458e-03
      -2.5240087320948707e-03 -1.0516777976601127e-05
      -3.8906568064367600e-03 3.5277991302586067e-03
      -4.3242630365810612e-04 -6.5380792521365890e-04
      -2.8827606107212369e-03 -9.9545232608285361e-04
      5.0831386317120740e-04 -2.0078140749285218e-03
      3.5046270579364032e-03 2.2672850380016799e-03
      2.5782090254023110e-03 2.4245431422504119e-03
      -1.7332641541273821e-03 -3.4694374076795777e-03
      -1.8144976237774797e-03 -5.7116636424795928e-04
      2.2141096341763145e-03 -1.1355590734540878e-03
      1.6594608624285088e-03 -3.6087566133582816e-03
      2.5644181038229803e-03 1.0266433715552718e-03
      3.5069027142881361e-03 -2.3339950329671208e-04
      -1.0311244610750163e-03 2.7474498460808494e-03
      1.1439664828375656e-04 -2.6174383165887488e-03
      2.3051835521412889e-04 -2.8814533020294522e-03
      -2.3331721605082292e-03 4.7651658040423189e-03
      9.4165602544821452e-04 1.7990634942179791e-04
      1.3913943382417098e-03 1.1183925311154465e-05
      4.9108512036575933e-03 3.1016138510230485e-03
      -4.4977240720851894e-04 -2.0333136084684112e-03
      2.8142573056630133e-03 -8.1188506495554125e-05
      -1.0386035298479352e-03 2.0654324421077691e-03
      1.2328071211829587e-03 -4.4929438879344873e-03
      -3.2052874738760357e-04 5.0444695327938010e-04
      5.6335267507277888e-03 -4.3946422199057857e-04
      2.1448221959097747e-03 2.7864788216726841e-03
      -2.5966348858537109e-04 3.4118238480104388e-03
      -2.7483483189338947e-04 -6.3712722399950842e-04
      3.6466973571673629e-03 -7.7853232429014407e-04
      -3.7400625057707054e-03 -2.9394954076077712e-03
      -1.3940120646100263e-03 -7.0291601520047872e-04
      -4.3659024500213488e-03 4.4121513063222094e-03
      -9.5434998885008337e-04 2.3102633196766531e-03
      1.0846550710871595e-03 -2.0589444397135248e-03
      1.0476369574768893e-04 3.0499139295720773e-03
      -5.6502716936346636e-05 9.4052007214258393e-04
      -3.4913851107809513e-03 -2.6504242630688902e-03
      -2.9952936650974329e-03 -4.5456955625970113e-03
      6.3623918077585911e-03 -3.4248866725436044e-03
      3.2306670360225075e-03 2.9694156369453273e-04
      -1.8482973186787887e-03 3.5642814640101713e-03
      2.5029939768487076e-04 -9.3923710698608622e-04
      -1.6109944690187972e-03 3.5900815288031221e-03
      -8.2613369435254784e-04 4.9085385241167886e-03
      -4.9955771269192322e-03 -2.2428599859548259e-03
      -3.5051746661201311e-03 6.6912811440548369e-03
      -2.0872635073979216e-03 4.7692701104645368e-03
      -9.6251705540143888e-03 -4.3965135117156814e-03
      2.4327423248130470e-03 4.7859557255319736e-03
      2.0850402473374620e-03 7.8742813768055836e-03
      -3.0889166089991075e-04 -1.9576744280176830e-04
      4.0245465031560096e-04 -5.3767491052539168e-03
      7.6825844203229246e-04 -2.8098801146855088e-03
      2.2341788437795847e-03 -3.0685239328302413e-04
      3.2371062549850014e-03 -1.0285060675262943e-02
      -1.2604087252313385e-03 4.5940781355888393e-03
      4.2039659072813677e-03 6.7755322757767859e-03
      3.4050529003900923e-03 1.9015317416829502e-03
      6.1608508640770285e-03 5.6262003989494989e-03
      -4.3839910776172688e-03 -4.8746008730793152e-03
      -4.5702049175604526e-03 7.9320309939261893e-03
      -2.9689602907397379e-03 4.2567643286350104e-03
      -4.4100907136213298e-03 9.3127963570435659e-05
      6.8093091083510509e-04 6.7010903470914934e-03
      5.5578087911041718e-03 2.5527243010302759e-03
      4.1399799822465369e-03 1.1481201983463327e-03
      1.3343244111196247e-04 -5.5124504694939397e-03
      2.5292431903533766e-04 -1.0248512161324195e-03
      4.3536132118845673e-03 -3.2138702599178279e-03
      7.4369564542627210e-03 6.3216290214614572e-03
      7.1385115577680556e-04 3.0263558583703198e-03
      2.9887335380089841e-03 2.8818477883994012e-03
      4.3371362348785282e-03 -2.1548424603660252e-04
      6.9523148593022416e-03 2.3893607899163039e-03
      -3.9272018549911828e-03 -4.1995332970778514e-04
      -4.3612694010168969e-03 2.3489433732083974e-03
      -3.9082502562248420e-04 5.9037921331909710e-03
      3.4377160369153366e-03 -1.2211717546595626e-03
      4.2659604282047148e-03 -6.6280218414683937e-03
      1.6677876206350390e-03 -6.3059431177938949e-03
      4.5053472961420950e-03 5.7266651344943086e-03
      -7.1174936841793724e-04 -3.1915658240257031e-03
      -3.6188082919099817e-03 -4.6362072177068845e-03
      6.1366203080213720e-03 -3.6485262892215838e-03
      4.6991042281982528e-03 4.3492731943503863e-03
      -2.3015114102895402e-03 2.6280969449801773e-03
      -7.9620158743429342e-03 2.0375428826270355e-03
      -3.6761075707585395e-03 -3.8349729600819626e-04
      9.8601418768214950e-03 -1.0238449640830878e-03
      -6.1513650955800159e-03 4.4280785921510621e-04
      -4.7521294129080072e-03 6.6694916904297703e-03
      -9.3459808611205339e-04 3.4199072105076155e-03
      2.9455304572077465e-03 2.4778119964927849e-03
      2.8635746658981108e-03 -7.3587929877428314e-03
      1.1172043472073524e-03 -6.8453869729265164e-03
      1.5091916335135494e-03 1.0329514426930253e-02
      2.5605666244184682e-04 -5.2385187012801418e-03
      -1.6728499231090327e-03 -4.4826897488385248e-03
      3.8261248540281886e-03 -7.7268227866024441e-04
      3.5423418502068160e-03 3.8190439944386220e-03
      2.9978715331631920e-04 1.6873683961058491e-03
      -2.1720353727883216e-03 4.5956917242952781e-03
      1.5271912833869678e-03 2.0704368751169465e-03
      9.9689424118388544e-03 2.2512663481242421e-03
      -4.6367957346495729e-03 -4.8513146884264207e-03
      1.2743740849208119e-03 6.0553196132864407e-03
      1.3498351964614300e-03 6.5898221344170950e-03
      2.1063476318800788e-03 -1.1586170510730341e-03
      1.9299206253955334e-03 1.6590893708895596e-03
      2.4256200966971887e-03 4.7659400858809636e-03
      2.5886389447695116e-03 1.0560867493420780e-02
      1.7383958682770150e-03 -4.3189873129245455e-03
      2.0182987939825398e-03 -1.6815956015468292e-03
      1.4963093929579729e-03 4.2134558102114817e-03
      3.1823885565157796e-03 4.9929663886969355e-03
      -1.2376902223234564e-03 -2.9168695575133873e-03
      2.1176676493233717e-03 7.5938740696595624e-03
      2.8880219293059245e-03 2.1645624482108656e-03
      1.6882130333902862e-02 -1.9584939820925067e-03
      -2.8170446602665176e-03 1.6520847781795309e-04
      1.0205081478060784e-03 4.0173707123444622e-03
      -3.0000910376860255e-04 1.3482842848430989e-03
      -4.2465443803699280e-04 5.5841429507114569e-03
      -4.5007631462984444e-03 4.2262274057446002e-03
      4.8301474232073684e-03 2.4762292555564032e-03
      -5.3446357530945708e-04 1.8881845489606520e-02
      -9.3320182048052351e-04 -3.1145343595696301e-03
      4.3729935195671822e-03 1.7109971392819520e-03
      1.6803401793100293e-03 1.1294143556961679e-03
      3.0422547382932918e-03 5.2574898450539649e-03
      4.5720474877659440e-03 -3.8070729161199094e-03
      3.9763562480565028e-03 2.8189852888628286e-03
      2.7080737690829250e-03 -7.1310801978003086e-04
      3.9254141998636603e-02 -2.3692556145887321e-03
      -5.4009118999607019e-03 2.8467714582846131e-03
      4.5252758211734093e-03 3.9497026954167583e-03
      2.7077945666281263e-03 7.4777487707263918e-03
      2.7700063341353082e-03 1.4379003370600936e-03
      -1.2757144341460508e-03 7.5108891535419098e-03
      8.3597231039186613e-03 5.8866836444307711e-03
      -1.3867995667632329e-03 4.4306379906655396e-02
      -2.7636948950062168e-03 -7.7766122528911069e-03
      -1.2640175986711340e-03 3.3263527119318146e-03
      3.8310565080237548e-03 8.5617960367816235e-04
      2.0879437596213937e-03 6.6078027163158247e-03
      -2.9311513943942771e-04 -8.3461353022423268e-04
      2.7757361036765500e-03 8.3832159356102831e-03
      3.6576212476046146e-03 -3.5033844413870840e-03
      5.4243157988932672e-02 -3.3194407055070268e-03
      -4.7898415424625414e-03 -1.9225725643685679e-03
      2.0280013357158221e-03 2.7073686980314169e-03
      1.4596118485107345e-03 6.0149923159069684e-03
      4.1197758707028041e-03 -6.8773291328989017e-03
      -1.7654299695458958e-03 4.5176907931311601e-03
      5.8984518251576201e-03 7.8469353754994017e-03
      -2.7540698889017951e-03 6.9372107039778141e-02
      -4.6621089554353211e-05 -5.1060163582139391e-03
      1.0610976392529680e-03 1.3188000842621718e-04
      7.3211594061845528e-03 3.6489032931066572e-03
      7.3736481355222323e-03 2.3456147521801916e-03
      -2.6282415307090734e-03 1.3758909226722136e-03
      6.3169485734737981e-03 4.2198225394609844e-03
      6.2242285927672347e-03 9.6438172884894663e-04
      1.3933392796770197e-01 5.3143508790639699e-03
      -3.7966792229834514e-03 3.5412417340591690e-03
      -1.8203073807711182e-03 5.5898098263644311e-03
      8.2577567404579038e-04 5.4265037487436713e-03
      7.0475773960725968e-03 -6.0841795416960321e-03
      -4.0966917606283593e-03 2.2011040003235213e-03
      4.7475015138484710e-03 6.0306269193222007e-03
      1.8029399344050856e-03 3.8630066785248396e-01
      8.0724687145044530e-04 -2.1974710230585402e-03
      2.2641714917930045e-03 3.0178354646858904e-03
      6.7497591195973582e-03 1.6173901782367483e-03
      2.6680684759225045e-03 1.9398053565808655e-03
      -3.2720487482947617e-03 -2.0570534321119934e-03
      2.6987214244669788e-03 3.5299794741665124e-03
      2.5912389234146829e-03 -3.0487370989234481e-03
      1.8968870290625506e-01 2.5456217205401623e-03
      -2.8443797679400216e-03 1.2777863970912368e-03
      1.6001782353461862e-03 3.0377470965505244e-03
      2.6359138753956394e-03 3.7002935921882354e-03
      2.1753082845219827e-03 -9.4429968496050499e-04
      1.7947026205139848e-03 6.0073628383848559e-03
      4.5709719776816414e-03 5.2925281196499387e-03
      1.5213760122897936e-03 1.9076988617648544e-01
      3.7785480631629721e-04 -4.7654504174679847e-03
      -3.6484777510432047e-04 3.9129359075956724e-03
      3.4318561608497646e-03 1.6753500195585383e-03
      2.9839472241499224e-03 7.1869952798669177e-03
      2.3076351594235762e-04 -3.1347452830923985e-03
      3.9040472230445857e-03 7.1547452705379546e-03
      6.9836264537223042e-03 1.6222358134613069e-03
      1.8932038665125125e-01 -1.8611057577179694e-03
      -6.0817073137742535e-03 3.0987343075100501e-03
      3.8055513773632556e-03 5.2513931878407387e-03
      -7.8462351514242663e-05 4.2258800171683219e-03
      4.7760046721856773e-03 2.3374205687796755e-03
      8.1899847391158330e-04 3.7164593622980931e-03
      7.2651348554325750e-03 6.6371690438074352e-03
      1.4375803049383332e-03 7.3011726634837862e-02
      2.2250881723066916e-03 -5.4651319806824769e-03
      1.5119905613272078e-03 -1.6390417078555543e-03
      3.8735716890602465e-03 3.2853613312750505e-03
      4.9223738231823147e-03 3.2498594236227115e-03
      -6.8785386834304622e-04 4.7740680149107917e-04
      5.1391457239511450e-03 8.3733738473887823e-03
      7.3873962189030008e-03 -2.5230619272583396e-03
      7.3450434010863500e-02 8.3167966097290097e-04
      -3.3210183983670544e-03 4.2584249970898857e-03
      -5.1428428374791801e-04 3.2558220987337558e-03
      2.9162422341438041e-03 7.5165130220518246e-03
      4.5007389358782861e-03 3.8678919219425241e-03
      -3.5825496367245051e-03 7.6057600651826297e-03
      4.3753073981110426e-03 6.1402200358181575e-03
      -9.6563772654031552e-04 7.0887809641951779e-02
      -9.2023954214256402e-04 -4.2945728099636786e-03
      1.6689864459113006e-03 3.9867090986205099e-03
      7.8532488853443536e-03 -5.9969220233240947e-05
      6.7313582179112062e-03 4.7221522517042905e-03
      1.9288583304761812e-03 1.7582403044390305e-03
      2.5027138395500156e-03 4.9012327334554736e-03
      6.8409661656868258e-03 -2.4440341501008028e-03
      7.2170720972152602e-02 -3.0280830884137112e-03
      -2.5973530884736574e-03 3.5595851233030940e-03
      -5.1543420574374523e-04 3.2629214115716047e-03
      -2.0950971290652695e-03 3.6750613683319265e-03
      1.8631306541172174e-03 4.4021883360378130e-04
      1.8296228021639209e-03 7.8670180272977994e-03
      8.6257266765599524e-03 2.0523477802337677e-03
      3.9405563550756382e-04 2.6297469345833751e-02
      -6.6848737283624650e-03 -5.3641226705155760e-03
      -7.4647856246859434e-04 6.5576564838559402e-04
      6.1262104532202157e-03 -6.3784493986692055e-04
      6.9125820236038077e-03 2.0517676076481288e-03
      2.3285677420310934e-03 1.3136062292890701e-03
      7.3225323421243467e-03 6.1311807143535233e-03
      6.4042354828085547e-03 -4.0849659234738472e-03
      1.8785431423511095e-01 -5.4765816104288718e-03
      -3.1768464263358088e-03 2.9054047746526175e-03
      1.9011842584919247e-03 2.5990151571048409e-03
      -1.6391243211769228e-03 2.0334530920016226e-03
      2.5656262238539502e-03 4.7045680471438402e-03
      -2.1245346241030973e-03 1.9384553352255448e-03
      3.6407125766786926e-03 7.4907596592023885e-03
      -2.9193445320974984e-03 7.1459455168924130e-02
      -1.9362148214490749e-03 -3.9886155748055712e-03
      1.9929537040445189e-03 1.7904567393704290e-03
      2.5510426766754144e-03 2.1220057724084212e-03
      5.3536993925122189e-03 2.2178762326326043e-03
      5.5921708343341873e-03 1.5905333540738656e-03
      6.4382282690426951e-03 8.3277142368500187e-03
      5.7580778489573336e-03 -1.1452354993725396e-05
      7.3544802340622537e-02 -4.5570169678089117e-03
      -3.0047060103942395e-03 4.1437659764461217e-03
      4.3511976615199857e-03 2.5149306881438794e-03
      9.6486277320855028e-04 6.5195935076152803e-03
      1.8119561914635481e-03 6.0398675225499278e-03
      1.3994046336194626e-03 4.9096683093648548e-03
      6.3183332442871415e-03 3.3375313769446299e-03
      -1.2105362255972092e-03 6.9131209107865826e-02
      -7.3927794684739371e-03 -6.7384739735428601e-03
      1.7669292422530989e-03 3.8902182186318786e-03
      6.9297224443475823e-03 1.9797920999262521e-04
      5.5028959007850601e-03 3.5316106061169155e-03
      3.5054110775964505e-03 -3.6911614173038634e-03
      2.7774234793283654e-03 8.7972945681602417e-03
      4.5341139468890465e-03 -2.4959580879927844e-04
      7.0192186324140149e-02 -6.2854910716243243e-03
      -7.9423988120334958e-03 2.7651230003215748e-03
      2.7410653317796931e-03 3.6483761281701651e-03
      9.6123452787181673e-04 2.8731587161744464e-03
      6.9965133870273791e-03 2.4320043792939710e-03
      4.6068561635821827e-04 1.8339605458198612e-03
      9.0209521121339727e-03 3.3380690309112288e-03
      -2.3059625136610910e-03 7.1451364648207324e-02
      -2.7650736246198262e-03 -3.6901791632498473e-03
      4.1859554066837812e-03 3.4498390187459060e-03
      3.5673734651449711e-03 2.3000800838202497e-03
      4.6052715473036627e-03 2.6045243724272765e-03
      3.8186484152887140e-03 -3.8229288602006340e-03
      5.2533301027515265e-03 9.3162576798516399e-03
      4.1565775457872867e-03 -1.6291934350128854e-03
      2.2758713663743251e-02 -3.5117131557355582e-03
      -3.1057381424608767e-03 2.2311962966693848e-03
      2.2910859064714877e-03 5.6171708875576562e-03
      1.3440774218483049e-03 6.0346673926486650e-03
      2.9689588501022207e-03 4.4284608745283980e-03
      1.0023037002499259e-03 3.8859476334407810e-03
      7.7364458023677441e-03 4.1953407098326888e-03
      -4.7222118129375814e-03 2.4121558279088129e-02
      -3.5260283761001606e-03 -3.3616818618683732e-03
      2.2561015879677996e-04 -7.3289508602440267e-04
      5.8829489407381339e-03 2.5565191544432318e-03
      4.7927251484735801e-03 7.0846556748355004e-03
      6.8295934449486492e-03 -3.3790080629147539e-03
      1.5747107124362415e-03 2.1527674737104379e-03
      3.4812807721632285e-03 -3.9129236067701684e-03
      2.1908665583859510e-02 -3.0796266351605216e-03
      -8.0555408237060738e-03 3.0136941920443946e-03
      -1.1332964513395369e-03 3.4154035113719006e-03
      1.1802687894927736e-03 5.6502464383290079e-03
      7.3110168019896232e-03 2.6845010426547588e-03
      -1.0034375411684337e-03 2.7360689801275389e-03
      4.1545032152424232e-03 1.6875691731422339e-03
      -1.1847845275749014e-03 4.9690964166466449e-02
      -3.5595416086765131e-03 -7.0446578316923523e-03
      2.4303216170418291e-03 -1.2125359835069736e-03
      6.0036306612948767e-03 2.6770668471334004e-03
      6.4090504826429875e-03 4.8224011157290640e-03
      5.3359137976910203e-03 -1.1763544355362966e-03
      4.7243938148476211e-03 8.4272560592430681e-03
      5.4797378239366751e-03 -2.9601002167336378e-03
      5.6512036921647205e-02 -5.3368617991314208e-03
      -4.0852115452672958e-03 5.3577003757404517e-03
      -1.1077285511729396e-03 5.3138254778093150e-03
      2.6133280108388843e-03 2.2577743641384439e-03
      5.6477769744870962e-03 1.0515666685026992e-03
      -1.4646088505048227e-03 7.9244238519769299e-03
      5.5545455018185339e-03 3.8379323366745104e-03
      4.5930738075081580e-04 6.8576164629894604e-02
      -3.9911899103370722e-03 -3.0316090653870228e-03
      3.3010602769070686e-03 3.4668059831081338e-03
      1.9606709527073959e-03 -4.6869035293876133e-05
      7.9495876787203379e-03 2.5367579545540202e-03
      3.8185426021816590e-03 -3.0516691702896741e-04
      5.1454047066523652e-03 7.0295160242837855e-03
      6.4200758406494016e-03 3.4693909676482358e-04
      7.4633670435546723e-02 -4.6676432717042285e-03
      -2.5965138241283215e-03 4.0696752774248184e-03
      -3.6073513461803151e-04 2.5233127505864270e-03
      -3.4195617039047341e-04 3.7305286524988049e-03
      4.3539033279647371e-03 3.6244584202641608e-03
      1.9946941798972481e-04 2.6044123279130873e-03
      8.4084535792406639e-03 2.8750367165372593e-03
      -3.5051032579067375e-03 1.5818888979728241e-01
      -3.0537397643627820e-03 -2.3790152898674941e-03
      2.1763043894911915e-03 5.3186083782197462e-03
      4.3501079130545163e-03 1.4837935040802330e-03
      4.2474858041646477e-03 4.5449527942640145e-03
      4.9181701863570716e-03 -8.7968792326335992e-05
      1.7131693384569862e-03 9.1683967087984215e-03
      3.3087413867170659e-03 -1.4049726230739598e-03
      1.5497150995678846e-01 -8.6988056862921555e-03
      -6.5479631085386602e-03 -3.0445403420337023e-04
      3.1842775272631647e-03 4.0739055512250925e-03
      -9.5793588320532727e-04 2.4506644555203623e-03
      2.1607523445749868e-03 6.7951246991954034e-03
      -1.9005104705122509e-03 6.3573192202312154e-03
      6.2756377934602755e-03 5.5234000756851226e-03
      -5.4010872133577045e-03 1.6045987296022582e-01
      -8.5701903733366412e-03 -4.5059963740853885e-03
      3.7420404508987709e-04 2.5381658680598850e-03
      3.2169840352195668e-03 3.8886715380202527e-03
      6.7476680331958741e-03 5.7359679225091774e-03
      1.9155465855717998e-03 3.5664196369213937e-04
      5.4654002766255996e-03 9.0650617105504754e-03
      6.2434173947461110e-03 -1.7371142449516513e-03
      1.4888563902306745e-01 -6.0072839158708067e-03
      -8.0725450673677177e-03 2.9335253405226437e-03
      3.1058115108888486e-03 3.7200605196363399e-03
      -1.3011260239940746e-03 5.2102266720763495e-03
      6.9012009198560556e-03 2.3551437355460543e-03
      8.8460372945493187e-04 6.2007604079409541e-03
      7.4622117809805049e-03 4.6234018526374902e-03
      2.9542597763953203e-04 1.3768123390474596e-01
      -1.6676067611721947e-02 -8.0339285457771449e-03
      7.2298054984306921e-04 4.2020112276409602e-03
      7.9890793958042085e-03 -1.1524988880507942e-03
      4.2827320956430369e-03 6.5799695219332871e-03
      3.0107106416451660e-03 -1.0812691571589167e-03
      1.8558486132439634e-03 5.9297146423577685e-03
      2.3440168648764400e-03 -4.7229175477038494e-03
      1.3789822606704683e-01 -1.1624876739047959e-02
      -2.2008102734952630e-03 2.3116320179609740e-03
      2.5104498063102114e-03 4.7099628335596907e-03
      2.1156627207831891e-03 4.8900830276301299e-03
      6.7699022253789399e-03 5.6844637853448688e-03
      -1.8107466062061755e-03 7.9457799806287362e-03
      8.4085307544488931e-03 4.7331370065442054e-03
      -6.5264665872721284e-03 1.3843445029253160e-01
      -7.4787221926169260e-03 -4.4935251630903632e-03
      3.1880017098300972e-03 1.2987667129437132e-03
      3.8199276796866753e-03 2.0230339578033033e-03
      5.7515589859041174e-03 3.4271753619708020e-03
      2.3254870910691086e-03 -2.0992517628179498e-03
      4.7807909221070696e-03 6.3676796520009040e-03
      5.7647694772747782e-03 -1.0482871960690431e-03
      1.4131393670365477e-01 -1.6701196271164183e-02
      -6.2226895300243230e-03 -5.9849655678105725e-04
      7.9268670668545659e-03 4.2850751525669402e-03
      -3.5932173348353358e-04 4.1433555006428532e-03
      3.2075895654202669e-03 4.8922247361890096e-03
      1.1386988574347810e-03 5.0020969406207750e-03
      8.4873512811208460e-03 2.9824237112919712e-03
      -8.7310509530094827e-03 1.4050454346388569e-01
      -1.5466003004427572e-02 -3.8533827980257122e-03
      -3.2465576491797030e-04 7.9650339374662312e-03
      3.4494085806713827e-03 -5.3120682518014697e-04
      4.2215838027881555e-03 5.1276110554937891e-03
      2.4628693156335977e-03 -4.2883903232783628e-03
      4.0972227453413617e-03 6.0799779711520809e-03
      7.3456982690189255e-03 -8.8204201716597409e-03
      1.3975505123350696e-01 -8.2766551816301753e-03
      -4.9013180491583250e-03 3.3539908324811975e-03
      6.2014566721145300e-03 6.4964108668889809e-03
      4.3524525036372167e-03 5.8758902186989374e-03
      7.3782288571667826e-03 5.1456539527605285e-03
      -1.5147930614620914e-03 3.2951905007897312e-03
      6.4271035518612130e-03 4.8855240711809913e-03
      -9.3855387857031333e-03 1.5818083733076987e-01
      -1.4042879324181502e-02 -7.8309142191293514e-03
      4.6829838574576690e-03 1.1064653514534395e-02
      2.5312262516103382e-03 -2.8882415225709915e-04
      7.0265358607306382e-03 5.5226168425294431e-03
      3.2791746763712612e-03 -2.5866616751219320e-03
      7.6995864045510251e-03 9.2803171722600237e-03
      2.2139487657586655e-03 -5.3361868894017664e-03
      1.5524956396692130e-01 -6.5300453453803961e-03
      -5.5611010350479348e-03 1.9878802040926334e-03
      1.1264122410028134e-02 3.9645380628361027e-03
      5.0825608987955335e-03 8.2047537011509086e-03
      2.7812846980985488e-03 7.5916438457694479e-03
      -1.8399509602860510e-04 2.3672780782515962e-03
      3.2694698157565180e-03 6.9763116362045047e-03
      -4.3439667044383717e-03 1.5825442994973193e-01
      -8.0140053904266973e-03 -8.0219269245182453e-03
      -7.0320034737151444e-04 1.7582722404630891e-03
      3.6753890681433510e-03 2.7638713796471238e-03
      5.8984284500021014e-03 5.6834714978357039e-03
      7.1468158850660725e-03 -4.5967839265423846e-03
      4.7671187616861923e-03 9.0289987027220384e-03
      5.6260417766852578e-03 1.9813324194979532e-04
      1.6004470655242883e-01 -6.5064655555580721e-03
      -6.7801159155144808e-03 2.4517380819610380e-03
      9.1858228569401438e-04 3.2790135576998640e-03
      2.9973441542111446e-03 5.0666206220287393e-03
      3.3777416642297299e-03 7.2585801804072678e-03
      1.6964919528550306e-03 2.7599940396010629e-03
      9.9010754608796093e-03 4.6884746282774880e-03
      -4.4175120828863282e-03 1.6838351370903248e-01
      -4.6499745731211498e-03 -2.5058403052196673e-03
      3.4494023010372354e-03 6.4367196608027704e-04
      3.7471540211695170e-03 1.1358936754109496e-03
      2.6133650070523972e-03 1.7499055291032748e-03
      6.9746889713092619e-03 9.3825332118419616e-06
      6.0812286581158554e-03 7.5884173235755007e-03
      3.6277959186802470e-03 -3.7120992710768853e-03
      1.6724108783199129e-01 -7.3842177452778275e-03
      -7.7609982568603965e-03 2.9145366158145510e-03
      -5.2870365727742396e-05 6.9739197207653730e-03
      3.3025995948494138e-04 4.9554033344997939e-03
      5.1725159445088417e-03 5.5385039164891703e-03
      1.3713838132708251e-03 6.5530231743161438e-03
      6.8895995607963093e-03 6.7868694006861935e-03
      -4.2783879008722438e-03 1.6667768256221888e-01
      -5.8882906356522730e-03 -4.1574622082399095e-03
      3.9428480474721968e-03 3.6909076824564436e-03
      6.4815534627372696e-03 2.9024860370078266e-03
      2.7134094017561092e-03 3.8609661583406266e-03
      3.7735031674644161e-03 -7.4226848268365577e-04
      4.5355671321374250e-03 6.3313763472288070e-03
      6.2340325361848470e-03 -2.0731606956591688e-03
      6.1215030962444038e-02 -9.0119794669154523e-03
      -7.9590587854773357e-03 3.5865691074526800e-03
      9.2776858239944831e-05 6.2970965289875580e-03
      4.1809329313521916e-03 2.5957667422135773e-03
      6.0548250497277061e-03 6.6702793650064655e-03
      -2.3282571473369654e-03 5.3866289837443456e-03
      7.6550538072273312e-03 5.5261838566614818e-03
      -3.3164035328772622e-03 5.8049908946319353e-02
      -1.9062062997578146e-02 -3.0931873913987110e-03
      -2.8457043712129190e-04 1.2466160531854708e-04
      6.7645768765693315e-03 7.5944020159494474e-04
      8.0414449162871538e-03 3.0734245019335676e-03
      7.1907012693011646e-03 -3.5681591092606001e-03
      4.4291617248440928e-03 3.0450303012458375e-03
      7.3099138331978245e-03 -7.8047777739937969e-04
      5.6063098382166589e-02 -1.8410083831471420e-02
      -6.6539792925537581e-03 1.4655714503787607e-03
      2.9713771018210684e-03 8.3284253272703779e-03
      3.7759679679424548e-03 5.6172796790591147e-03
      2.6249317992321141e-03 2.8251929403570603e-03
      1.3771976698523502e-03 5.9082277147518387e-03
      7.8866998302056148e-03 7.3624957547132747e-03
      -4.2466610795863577e-04 5.3709839446170013e-02
      -1.8818523270481637e-02 -3.3634685774095140e-03
      -3.1435107060324866e-04 3.1998806123584140e-03
      6.8968831335058101e-03 3.1657087922518342e-03
      6.3457088560456756e-03 2.5460833543015289e-03
      2.4925507107327709e-03 6.7118923556729266e-04
      4.5915729877338022e-03 9.1029996828762925e-03
      4.4793220690852609e-03 -1.8151946886126387e-03
      5.5541144461886106e-02 -2.6792426261093381e-03
      -6.1098121791355224e-03 3.0174463849021709e-03
      1.9393487274476768e-03 6.7216917976288190e-03
      -1.9872301140970061e-03 8.0580861396743770e-03
      3.1406175444131960e-03 1.8051597948490108e-04
      -7.9730709481597617e-04 3.5138713210246223e-03
      8.9778894157536097e-03 3.6858609937353180e-03
      -1.1164676426757597e-03 4.9854021582706319e-02
      -3.5524950486548641e-03 -6.7479719469246986e-03
      1.1753858767157401e-03 3.0704792559478624e-03
      3.2114013534028222e-03 6.7854041579533018e-04
      2.3367956820266617e-03 2.3060757894410012e-03
      -6.8383652708538852e-04 -4.3588452529249467e-03
      2.3252794654481340e-03 9.1937162646991161e-03
      6.5883664972971939e-03 -1.7703644316177213e-04
      5.2158264079007519e-02 2.7909946555521952e-03
      -5.1216572885536714e-03 3.3128698405136916e-03
      4.2673526801042831e-03 2.3031471610719311e-03
      2.2456247919758810e-03 7.8301217210190802e-03
      4.0850034665425410e-03 1.6727350671147088e-03
      -2.1078766152070332e-03 2.8210485029061790e-03
      7.9137576963293679e-03 3.3802293039961119e-03
      -3.7948448014991209e-03 5.8526600117009921e-02
      -3.2701910602220413e-03 -6.9686308587843162e-03
      -1.8987236850354370e-03 4.8779043780564687e-03
      4.5107978109783405e-03 3.8216374406057534e-03
      2.2889236381817713e-03 8.3104767961856753e-03
      5.1090121864657797e-04 -2.8692204377379787e-03
      6.2089556791166105e-03 7.6196055422299265e-03
      7.2091302311819315e-03 -1.1362136684181341e-03
      5.8141836544173431e-02 3.3960192709680046e-04
      -5.5871877370190981e-03 3.9406873196936093e-03
      1.7791816965199625e-03 5.9417022279520271e-03
      7.1707936585980699e-04 3.1088809159164430e-03
      7.2878900345281260e-03 4.2757703031845199e-03
      -1.8755214673454474e-04 2.9560002061583229e-03
      7.9725984090126406e-03 4.0735816500579811e-03
      -4.2220368025093994e-03 5.8175306486168865e-02
      2.7502611093753182e-03 -3.5066051016455903e-03
      -1.1355385381482638e-03 4.2272631149946815e-03
      5.5782032248026230e-03 3.7132013982469313e-03
      2.3791475563052110e-03 3.1518110116049766e-03
      1.6272270178130928e-03 -1.7079963525159978e-03
      2.4911806640142437e-03 5.4684172320258540e-03
      2.8707042748640200e-03 -3.7217433508358416e-04
      5.7397319276621665e-02 -1.2514128887653746e-03
      -8.1324785223421056e-03 4.1710986784162284e-03
      -9.2668950246176541e-04 7.9129824524124016e-03
      -2.3495430685559432e-04 6.0543794626841552e-03
      4.9626999234557607e-03 -4.4921831747931604e-04
      4.4822528202968353e-04 4.1602851507980829e-03
      5.8361899831399916e-03 6.0486150360527097e-03
      -8.9059564131522954e-04 2.2702770087210698e-02
      1.6930444742323377e-03 -5.4211840145396394e-03
      8.0486944614354360e-04 -1.2804644673668902e-03
      8.1952292963762413e-03 -1.0410329893034891e-03
      3.8874153399346082e-03 2.6799313639329502e-03
      3.8425264593228937e-03 -2.4250143067826072e-03
      4.0903146314163509e-03 7.5557827217761983e-03
      3.1432987940010798e-03 3.0382712001561841e-03
      1.9329472141557044e-02 1.5776748769690189e-03
      -6.1598075369971236e-03 -9.1115835402935533e-04
      -2.5736838274155339e-03 7.7187594849621888e-03
      -1.3153610396635920e-03 5.4219548666855806e-03
      5.3407916719414245e-03 2.6271863831081404e-04
      -6.1721724376813850e-05 4.8738851896879005e-03
      6.5189720505160692e-03 2.6234299886140691e-03
      1.8354567513923774e-03 1.8582740057635595e-02
      8.8146647999730646e-04 -6.9582728374047772e-03
      -3.6705059796093933e-03 -1.2961516971614830e-03
      4.0499714271005054e-03 -1.9688132758171580e-03
      4.7020251480695508e-03 8.0891755949342812e-03
      -2.1797176666258741e-03 3.5029040433054329e-04
      2.2948258539287028e-03 6.7726604625261231e-03
      4.0378604323012832e-03 1.6472552123541315e-03
      2.1065276655945948e-02 -2.0581657605820325e-03
      -6.2475373026183835e-03 -3.1635733504720371e-03
      -5.8039014504841172e-04 7.2972929367957663e-03
      -2.9234810620787418e-03 7.7076712141679223e-03
      2.8017374715086849e-03 9.4401480403633834e-04
      -5.6055448650465611e-04 3.5509443386354815e-03
      6.8878537185715115e-03 2.8219345942849649e-03
      -2.0351378277489139e-03 1.9931213988032621e-02
      -2.1785430606637928e-03 -3.6510560152496034e-03
      5.7702414616473004e-04 -1.0263939988885240e-03
      6.0765718218307365e-03 -1.1782010267565382e-03
      3.6728411598341082e-03 2.7839755364511280e-03
      6.2908888046871907e-04 -2.4174777836356439e-04
      6.1860522854794023e-03 9.4830128111918228e-03
      2.8796042026293400e-03 -2.2647054733136436e-03
      1.7908805496551321e-02 2.9677586065803160e-03
      -6.4340031421732998e-03 4.0104782809213167e-04
      -1.4405530236323749e-03 4.4006937142786126e-03
      -1.8695661579217933e-03 7.6274784794466439e-03
      3.5338077610311291e-03 -1.2250111787602783e-03
      -1.8126141034693415e-03 5.6412574138887343e-03
      7.6409180848853566e-03 3.4847851965557146e-03
      1.2748827493539252e-03 1.8105147402916195e-02
      -2.5649265830028365e-03 -7.3117299128025327e-03
      5.7822665646710609e-04 -2.8342303147452638e-03
      6.8249705391349473e-03 -1.0796789653181118e-03
      8.3010309842315860e-03 3.4792052013698583e-03
      -2.7778324549275163e-03 2.5001893644610710e-03
      2.5662829495479546e-03 4.6685047503688855e-03
      3.4953807779589605e-03 -1.1568254830201870e-03
      2.1174582815804466e-02 3.0061730266691686e-03
      -4.1561050210808222e-03 -2.0182165018441506e-03
      1.4401662482669366e-03 7.0915266035080143e-03
      -8.8139231115478851e-05 4.5530679741026371e-03
      1.6093422278939925e-03 -2.1345583508734865e-03
      -3.6998970079640472e-04 7.3951434646285022e-03
      9.2912553766395806e-03 5.3171366827428519e-03
      -8.1302010742346522e-04 3.7463511944032343e-02
      -2.9514991157385246e-04 -8.3426075963364595e-03
      1.2083549678713200e-03 -6.0254741953930113e-04
      2.4782590981648547e-03 -2.0998876108139055e-03
      7.2992903375387148e-03 -1.4334040009761106e-03
      -7.7572627717723951e-04 -1.1602750064990367e-03
      3.9383559058361866e-03 8.4504161677726383e-03
      6.6172693562237973e-03 2.8113650556365380e-03
      1.9159371005860092e-02 -8.0878056066108856e-04
      -2.5422485734237638e-03 4.5300886597102777e-04
      -2.7677575663428620e-03 7.2188197863946478e-03
      1.6482912272220717e-03 6.3432500357587032e-03
      1.3232086059974729e-03 -1.7963523334881201e-03
      1.7936350058750468e-03 4.9499899667243014e-03
      6.2901345019777261e-03 4.2959069652385336e-03
      2.3801620469884443e-03 1.1312589636341429e-02
      3.6829056540025988e-04 -4.7002943420168123e-03
      1.0216117760004184e-03 -7.7710841640473924e-04
      5.8983478592766446e-03 -2.1814029371949313e-03
      4.8727211807604994e-03 5.8487311002494496e-03
      -4.3935206696991882e-03 2.3813330434120255e-05
      7.5862135086610591e-03 5.8309388799679838e-03
      5.0039205904036611e-03 -1.0626003626342589e-03
      9.6978785139763771e-03 1.3211974741812941e-03
      -4.4566128751156488e-03 -4.3184826250038518e-03
      1.5182401846120127e-03 4.8137987207348973e-03
      -4.8453381756962399e-03 7.1826580130538572e-03
      3.8765611710196673e-03 -2.7187603210089739e-03
      2.8329386007109008e-03 2.7230256117313808e-03
      8.0179895734677088e-03 3.3814097652706300e-03
      2.3839774579146218e-03 1.4163878323584287e-02
      3.4786398357668966e-03 -4.8485162733717217e-03
      5.1177444683702440e-05 2.0864959762289252e-03
      6.9101009454234719e-03 5.5048711772646280e-04
      7.4047455188320137e-03 7.8919884502885260e-03
      5.3416300880277734e-04 4.4512768270000197e-04
      6.6301218431445907e-03 4.9602750034019143e-03
      4.2781056715804535e-03 -4.2625175834118769e-04
      9.6354812289040897e-03 2.8231632171109629e-03
      -3.4348852309623507e-03 -3.0406215484331814e-04
      2.2780890910450925e-03 8.0586812031373332e-03
      2.6875641903543729e-05 4.7015985296142036e-03
      4.0730671599451080e-03 5.1558968966240222e-05
      2.7771147337635931e-03 5.0856441324703249e-03
      7.1354678614501113e-03 6.8048906616835769e-03
      9.4543359980830163e-04 1.8637414418924702e-02
      3.5737933295973286e-03 -3.8489620060029356e-03
      -8.9615215512288748e-05 -1.7336015718623045e-03
      2.6313069216091626e-03 -2.6304469954064971e-03
      7.3296066472242506e-03 4.0171352186844653e-03
      -2.9661006692317224e-04 3.3876558747805725e-03
      4.3724420457545692e-03 6.9284594728443666e-03
      4.6000978635636885e-03 -4.1421158025336575e-04
      7.6438440124293365e-03 7.5246462193286230e-04
      -3.8529602687161699e-03 -4.0772954621326228e-03
      1.3499262404438937e-03 3.9002125401556430e-03
      1.1228872645579248e-03 2.2318218732198958e-03
      -2.4515591391372005e-05 -1.4281970321795615e-03
      4.7259370851485466e-03 4.3113886001354173e-03
      6.0303990016519690e-03 8.1642730206687858e-03
      -1.8047733918270790e-03 1.1135563167095195e-02
      2.0835859797928673e-03 -6.4468054832596848e-03
      -2.7781168954305112e-04 -9.6740666537005547e-04
      4.9093103123827109e-03 -2.6439125238571985e-03
      4.6734043307272571e-03 6.4146624678026887e-03
      -1.3509321900230429e-03 5.4090818239732857e-04
      7.8429075326570518e-03 7.5467365289025876e-03
      7.6486520762342703e-03 4.8618094242836194e-03
      6.3089263750536802e-03 4.4437957111275253e-03
      -3.1172166599911346e-03 -2.6584984694909540e-03
      -8.8142750383801867e-04 4.6856026636391060e-03
      -2.5955375542691258e-04 6.8766651372032337e-03
      5.7379504141903872e-03 -3.9924879161408553e-03
      5.0232151418777805e-03 7.2508668719194697e-03
      7.6369806864305320e-03 4.3390121056269375e-03
      4.2685324328606894e-03 9.0312500314622002e-03
      2.3017078357917753e-03 -5.7140196741932324e-03
      -4.5046774727071056e-03 -1.8804304310805309e-04
      6.9122556275266782e-03 -4.6827656332418368e-03
      7.4041900620339081e-03 3.3604080963993894e-03
      2.9494713797871406e-04 3.1204316811001150e-03
      4.2777679916179371e-03 6.4092606264708803e-03
      7.4264410750727386e-03 9.5455646908883458e-04
      1.0277920452504105e-02 2.2983062334685548e-03
      -4.6519544316273864e-03 -1.4503427466947515e-04
      -4.5554152817989220e-03 6.4159129258052044e-03
      -2.5017862126088435e-03 7.3770004168174598e-03
      7.9582762839590232e-03 -4.4104454190668963e-04
      9.4562817581452289e-04 4.3368758625300903e-03
      6.6447932985881581e-03 6.8441177135458407e-03
      3.4236162831494808e-03 6.4100976785891137e-03
      5.7894162137939378e-03 -4.7413097314140630e-03
      -4.5178647606002684e-03 -4.6146025541233919e-03
      5.9748269831441025e-03 3.0483517256867505e-04
      3.2915934048552320e-03 7.6368741898267855e-03
      -1.2628492580619467e-03 1.7669148523244344e-03
      8.3421496278084442e-03 9.6370085259480966e-03
      4.5897658999162795e-03 1.9867830829610410e-03
      5.8292545646894105e-03 1.5083244468328018e-03
      -8.3129164517410682e-03 -2.6172452785257804e-03
      -1.4546572802457737e-03 6.4947244633490149e-03
      -1.8556205422864554e-03 5.9079821106705031e-03
      4.9248740510570077e-03 -2.2045976177097540e-03
      -7.8932256259735289e-04 7.3077450565336962e-03
      6.5512698964200894e-03 2.5154476080406114e-03
      3.4846901550946224e-03 7.4815190814281332e-03
      5.3130677127442866e-03 -4.8320072892568677e-03
      -3.0139412172609983e-03 -4.2943158263402288e-03
      7.6806983119841014e-03 -1.2775787550730223e-03
      3.5280984578932827e-03 3.2316348226136367e-03
      -1.6725781940753975e-03 1.3786693974658527e-03
      7.8944465134954660e-03 8.1052243614568170e-03
      4.3378057974472499e-03 4.7568507169626810e-03
      1.0271687217895774e-02 1.5834366553774122e-03
      -5.0900433570949489e-03 -2.6131664326472090e-03
      -1.2676194269444619e-04 -4.1350331156745405e-02
      1.0490765640078141e-03 1.1214061539358861e-03
      -5.9270504102956791e-02 -1.7245144600920577e-03
      3.3648283155927150e-03 -2.6805596665625191e-02
      5.5460872220450133e-03 -2.3083740844261066e-02
      1.6838820782966995e-03 5.7251288811945925e-03
      1.4040011532462555e-03 -3.2757386343454866e-03
      7.9345174496105999e-04 -1.7576426909488906e-03
      1.8675300006907652e-03 -3.0639159966976120e-03
      3.2530013705476236e-03 -3.6296248047725625e-03
      -5.7370699004525814e-03 2.8034166978085557e-03
      3.5858446586908505e-03 6.9233254236271474e-03
      2.6803904392871856e-03 3.6791391682025709e-03
      7.6220295549266877e-03 3.8708638542948488e-03
      -1.7931889442062401e-03 1.1358898894244251e-03
      -1.6199939681509788e-03 5.4673820154508140e-03
      -3.7599713689630701e-03 4.1432642315942427e-03
      1.3566389676386613e-03 -5.6566875187764208e-03
      4.9365880604747229e-03 3.1397606964084948e-03
      1.0340938305294756e-02 3.6246734480494831e-03
      3.5640651646702882e-03 8.3167829222450425e-03
      9.1578526793007729e-03 -6.4707443246945079e-03
      7.0433589222097478e-04 -1.7467688874448445e-03
      3.8591158272105542e-03 -6.1869656653242107e-03
      3.4342326216216805e-03 7.1321223890715669e-03
      -1.0225161638279939e-02 6.0993313754945412e-03
      6.6277654220357066e-03 1.1230544162143216e-02
      2.3637404352997416e-03 6.3008443932274626e-03
      7.0219315396730661e-03 1.8008325770796477e-02
      -9.1260429730583952e-03 -1.6119199999164663e-03
      -6.5416186090959619e-03 4.3411923595037018e-03
      -5.6113934848852666e-03 1.6554581548049181e-03
      2.3427285189697458e-02 -1.9208599125387211e-02
      6.5218160106488687e-03 3.5500834722476580e-03
      1.4288076875899064e-02 8.4609199355664515e-03
      -1.6008151444761613e-03 7.6952998386848213e-03
      -3.4508616970616669e-02 -6.7281015564702200e-03
      -1.1712537113889878e-03 3.2884674842526273e-04
      4.8516917048571822e-03 -3.4827893126933153e-03
      2.9639043893569562e-03 4.2473129772424963e-02
      -6.6851656476936703e-03 3.5815403043145924e-03
      4.0622066971929887e-03 1.0257874302011341e-02
      4.1384235788387161e-03 -2.2090827034911805e-03
      4.8304176074505578e-03 -4.0405194613723626e-02
      -1.5949397982721824e-03 -1.7152953079690933e-03
      -2.9451717203784361e-03 1.2272906344925052e-03
      -3.1356178509598072e-03 3.9878547158607551e-03
      1.1064936136312421e-02 -4.6836702894934501e-03
      4.5848892684610659e-03 2.8247907530138932e-03
      1.3496108086365474e-02 1.7185126795985473e-03
      6.2254689698863159e-03 2.7299881801335327e-03
      6.5559583047359099e-03 -6.7158214484288629e-03
      -6.4104419717018130e-03 -2.8133389809408362e-03
      4.1363018105217099e-03 -6.3013469446890165e-03
      2.9033263997352687e-03 6.5187421941293707e-03
      -3.8438387998172433e-03 5.0314570212935126e-03
      7.0941270658279295e-03 1.6037310031875543e-02
      6.1570735258270146e-03 4.5203784679348760e-03
      4.2236959787566699e-03 6.2426679120989263e-03
      -5.1850591748107766e-03 -7.4592418644265348e-03
      -2.8058023127966441e-03 1.1040826679272633e-03
      -4.7899880697973435e-03 -5.2041902293303117e-04
      1.2426131187452650e-03 1.3070915697501030e-02
      4.6566050478787238e-03 -3.8565352320199284e-03
      4.5028266174940192e-03 -3.5120726646060518e-03
      1.0477822552968511e-02 5.1225132373358719e-03
      3.5674553949241287e-03 1.1131051344377709e-03
      -2.3716869444649798e-03 -1.1270832746839128e-02
      5.0116714882301122e-03 -5.1176261655257972e-03
      7.8531999407723679e-03 2.6467064091160934e-03
      -4.9040101470796647e-03 5.8353062249359771e-03
      4.6697037084144875e-03 8.6385744579072984e-03
      7.4526415126672371e-03 -6.9784084227375787e-05
      -8.4518417197519018e-04 5.1223291859553918e-03
      -5.5732386356217023e-03 -1.6620387676300336e-03
      -2.2524163466311571e-03 2.6724648909777658e-03
      -2.4187713121145678e-03 2.1883926456658042e-03
      2.4453418693713446e-03 2.1217327442911303e-03
      1.0861579228509189e-03 -1.2090298749499889e-03
      3.0897362217276601e-03 3.9197143977831488e-03
      5.5325696090227829e-03 4.5439896782417562e-03
      2.6073604467323967e-03 -2.1921287433635034e-03
      -5.2887316350062902e-03 -4.9487186859857504e-03
      3.7344606949032489e-03 -2.2393294646919685e-03
      6.1892562074667689e-05 -6.7904052937034216e-04
      2.3168164214705527e-03 1.6086637337658219e-04
      2.6461091878351049e-03 1.8822708365784410e-03
      1.9188545818503854e-03 1.1515939322053346e-03
      3.4086949158964770e-03 -1.8601279918800894e-03
      -1.2068876488603097e-03 -5.1564285883926742e-03
      -2.9899286617772422e-03 9.8662707985812262e-04
      -1.6854155922490510e-03 3.8148667442805145e-03
      -9.4234249068057667e-04 -2.3534664886029656e-03
      2.9908308421267146e-03 -1.0099016676616075e-03
      1.5151737582624498e-04 -1.6326829818384269e-03
      2.9021535843002351e-03 6.0528038984365507e-03
      8.0708704305867442e-04 -1.7483771633824796e-03
      -1.4420069776629248e-03 7.1538651579276943e-04
      2.3429086946362989e-03 -5.6590307196660561e-04
      5.5752716567011203e-03 3.1400530170872165e-03
      3.6128394433692886e-04 4.0468686497391083e-03
      -2.4639347136490362e-04 -3.7404192969619162e-05
      2.8061012274530955e-03 2.9257064779628964e-03
      8.3975032380540875e-03 3.0528490166623953e-03
      -7.7028477776223065e-03 -1.4383346464169979e-03
      -3.1974339612383202e-03 5.3085081176638144e-03
      -3.3218219028716685e-03 3.7917692111388303e-03
      -6.7560569235590310e-04 3.7381034808005951e-03
      5.0281906424125807e-03 1.6852179162807626e-03
      5.3485393394048673e-03 8.9558506576422811e-04
      3.7424386215674514e-03 8.5750222885558856e-03
      1.3611760531450237e-03 -3.5111683471476087e-03
      -3.3317946892590113e-03 -3.7243048994218832e-03
      2.3259799534145515e-03 -4.5434616860039754e-04
      2.7632779177678159e-03 6.8063071427717169e-04
      -1.5378631789587428e-03 -1.2569370195610182e-03
      -1.7254666710367792e-04 4.1321937996864873e-03
      1.8724828740939508e-03 4.1270223242776405e-03
      4.8349956491922762e-03 -3.1418086835805093e-03
      -4.7951382804993763e-03 8.8938957484973864e-04
      -1.5287559074632627e-03 2.4163917733181352e-03
      1.8267037666732758e-04 -6.1801403711042005e-04
      -2.7580088094034810e-04 -1.5777543652417013e-03
      2.6465158760180653e-03 2.1063775073956984e-03
      2.6793155665427696e-03 -1.4648976295636188e-03
      2.3325068694997043e-03 4.1998083802918928e-03
      1.0522541212509616e-03 1.4848188589436239e-03
      -4.6461462884367253e-03 -2.0973233321935581e-03
      3.6480019493668413e-03 9.1694831513767974e-04
      2.4888022821801786e-03 -5.7880406712547492e-04
      -1.0488196716489613e-04 -1.4727807957497371e-03
      1.8066760293315948e-03 3.1983080008851188e-03
      2.8712030577038319e-03 1.9375143355962858e-03
      4.5049957857304663e-03 1.9639486255395517e-03
      -4.1798727027299457e-03 3.5411625413672487e-04
      3.3461099886038259e-04 1.0814830788597317e-02
      -1.2508702047461771e-03 3.7627258520384031e-03
      3.3131910412387770e-02 -9.6110166640759091e-04
      -1.4250321983111502e-03 8.4600826857696111e-04
      2.4853440662263460e-03 3.4601923071787017e-03
      -2.5743905945186498e-03 3.2404971390515768e-03
      2.4340722161750625e-03 -3.1156234741438597e-03
      -1.1582838221096568e-03 -1.1432053172186346e-04
      -1.2133092396559306e-02 3.0587801851015330e-04
      3.2066048161781449e-02 6.5750097120815532e-02
      -1.3828705526100083e-03 -9.3863093728825577e-04
      1.2420202887080133e-02 -3.5290629174308118e-03
      1.4650607402153053e-02 -2.5957763089024264e-03
      4.6210672606123646e-03 4.6072041239005913e-03
      -1.4403197039823336e-03 -2.5845717033208333e-03
      3.5385866838070324e-04 -1.9476263001683126e-02
      7.9131304010475944e-04 -1.8310846830542359e-02
      -3.8351913333040229e-02 2.3405638992888885e-03
      -2.2271599638493561e-03 -5.8720610714212600e-03
      -1.0007126783556002e-03 -4.5506807074668556e-03
      3.5449258483455305e-03 8.4749163648911319e-03
      -1.0908266916969597e-03 1.3969180137891822e-02
      -2.8480013189670886e-03 -2.1951285460195605e-03
      -9.1455645243068828e-03 -3.1275827326320095e-02
      -8.8548233989923630e-03 -5.4813060830589039e-02
      -2.0953155746843235e-03 -3.5992904369684008e-04
      -1.7287613463945386e-02 9.2824423688835913e-04
      -1.6206096891262976e-02 1.4023745599297155e-03
      -3.1489479764269849e-03 2.1395589359757973e-02
      8.4046560127328720e-03 5.4161975128622845e-04
      -3.1451711819089146e-03 -4.7127393275149393e-03
      -3.2968966928483188e-03 -5.8391336520729189e-03
      -8.5222759273598046e-03 1.3216732869000372e-04
      2.4638643003277272e-03 -3.2938528104431209e-03
      7.8100635118298900e-02 4.0397255841560971e-04
      -1.5768221971391983e-04 8.5644373198308990e-03
      6.9505273692116046e-03 2.2839133894808194e-03
      -1.9842829573947047e-03 -2.7009891707479869e-03
      -5.4584766268476852e-03 -5.7632712353935123e-04
      -2.9570693278568542e-03 1.2328846823509610e-03
      -5.0218921623226710e-03 1.8149979951941730e-03
      1.1847101534444618e-02 1.7593525657401729e-01
      9.6271206034926251e-03 1.5266942932982398e-02
      -2.6956844323714028e-02 9.6169538237663166e-03
      6.3749015742906607e-03 -1.4492200622577892e-02
      -1.3627982798439742e-02 -5.5395501483590810e-03
      -5.6655954681443478e-03 -1.6406629982623272e-03
      -2.9719087168864262e-03 -6.6279363571894951e-03
      3.8702185091042869e-03 -3.2923262555199966e-03
      1.7230296710088688e-02 -2.3802285167092724e-03
      7.1445812364687609e-03 -1.0775681408156868e-02
      4.7952331139597465e-03 5.4731003518862405e-03
      -3.9462698019314974e-03 -5.5308738179812595e-03
      -2.2489957748635758e-03 9.1999242431192838e-04
      -4.5816320404809350e-03 -5.5289665720676994e-03
      -3.3440719933108959e-03 1.3843488841367548e-03
      -9.4724019455498575e-04 1.0437560145152873e-02
      -7.2379935844739066e-03 -2.0029556196570720e-03
      -3.6106916732304459e-03 1.8693050372997869e-03
      4.5226953858060548e-03 -9.0551487496601138e-04
      -2.0021583120591107e-03 -5.4572407580923011e-03
      -1.8343113613217564e-04 -1.9621400449420937e-03
      -7.2551307292105316e-03 -2.1237724189342960e-03
      -9.2568479347967907e-04 -5.1459445678180456e-03
      1.9407859311383929e-02 -3.2109035039168776e-03
      3.5742463099898598e-03 9.4763074465122521e-04
      -1.4487691625102420e-02 4.4892477546880152e-03
      -3.7330284737338289e-04 1.4857413114535004e-03
      -6.1445541054924602e-03 3.1499222944816928e-03
      -7.6245650441134055e-03 -6.5068656076293380e-03
      1.5235726888306409e-03 -6.2557200936723238e-04
      -5.2858736443996586e-03 -1.3789602437363658e-03
      -5.6090796905423823e-03 -7.7632776882733984e-04
      -6.0160779783213700e-03 -4.0762294431966797e-03
      3.8929652512706757e-03 3.1246226053697180e-03
      -7.8294734614654804e-04 -5.6391459049096983e-03
      -9.9531421458745259e-04 -4.1047612952334785e-03
      -8.6649354266523822e-03 -1.5777950913459101e-03
      6.8473670772671802e-05 -8.4076478835441049e-03
      -3.5245654408170759e-03 -8.8008700011788787e-03
      -7.1676899643460074e-04 -5.7020932286203476e-03
      -2.9807137131681147e-03 8.0354535789919340e-03
      2.9962378754560498e-03 -9.8221139848484449e-04
